The NULL 0.00233674
of NULL 0.368142
this NULL 0.000630475
is NULL 0.168774
developmental वृद्धि 0.000124077
gram बेसन 0.00226855
that NULL 0.000441601
with NULL 0.000449896
the NULL 0.591725
There NULL 9.07503e-05
become नगरीय 8.59274e-05
seasons. खरीफ, 0.0455657
are NULL 0.113261
in NULL 0.169575
and NULL 0.0263341
becomes मुरझा 8.00953e-07
have NULL 0.035294
used सगुन 0.000504433
be NULL 0.0241258
wishes, होगी, 5.18458e-05
will NULL 3.57499e-06
get NULL 7.31224e-06
see बच्चे। 0.00125902
, NULL 0.0889383
at NULL 3.00695e-06
having फायदा, 0.0260567
In NULL 0.000178464
was NULL 1.02483e-05
to NULL 0.219182
on NULL 7.49602e-07
a NULL 0.268906
now जब-तब 0.000933962
it NULL 0.00331913
tea माना 3.22771e-05
mean कार्य 0.000154548
localization स्थानीयरण 0.0331704
by NULL 7.16929e-05
gone सोया? 0.0222214
for NULL 0.0397849
has NULL 0.00710101
made जब-तब 0.000474034
there NULL 0.000195027
On NULL 0.00897785
village गांव। 0.00375089
made बने 0.0582522
spry एम-45 0.716529
direction निर्देशन 0.39592
growth वृद्धि 0.64
yet. कार्य 8.70608e-06
Pradesh). (अब 0.499831
contained शास्‍त्र 0.0960932
country NULL 4.70872e-06
be म्युनिसिपल 2.25087e-05
way गर्भवती 0.00220014
this. NULL 1.90965e-05
closed बंद 0.849411
from NULL 0.000169647
' निर्देशन 2.23622e-07
The बोकर 5.41127e-06
which भीनी 1.71895e-07
change बदलेगा 0.00267014
previously पिछ्ड़ा 0.297612
lagging पिछ्ड़ा 0.104127
transfer अंतरण 0.0819052
A NULL 0.00273534
do NULL 5.22242e-06
by बोकर 0.000513488
rainfall. कामचलाऊ 0.0134491
feed प्रतिदिन 0.0810407
Shahrukh शाहरूख 0.490017
been पोलैण्ड 0.000216712
philosopher साहित्यकार, 0.000989626
was लव 9.35827e-05
first. शहंशाह 0.328067
way बदलेगा 0.000976838
Salman's शाहरूख 1
has पोलैण्ड 7.43881e-05
sowing बोकर 0.00911889
also. बच्चे। 0.00218147
leaves श्‍लेष्मी 0.00268408
During NULL 1.48405e-05
done NULL 4.90733e-06
growth. वृद्धि 0.539907
beekeeping मधुमक्खी 1
persistence पलट 0.999162
destiny. पलट 0.817685
produce 2,500 0.00644312
has 2,500 6.27335e-09
became बने 0.00426143
game पलट 6.49814e-05
Punjabi पंजाबी 0.599348
leadership नेतृत्व 0.917713
here 2,500 0.00289957
organized उपक्रमों 0.0050942
out घिस 0.00441383
used भीनी 0.000406844
like NULL 0.000125879
leader नेतृत्व 0.205364
CSH-5: सीएसएच-5: 1
growing वृद्धि 7.36663e-06
Dilip दिलीप 0.925163
remained 2,500 3.45291e-06
do दिखता। 0.000559583
Undoubtedly सामंजस्य 0.311633
have हरितक्रांति 1.27852e-06
From NULL 5.47722e-05
kinds भीनी 0.00115575
corporation म्युनिसिपल 3.20742e-06
, हरितक्रांति 1.86923e-08
reformed उद्धार 0.114962
" "केलिप्टस" 0.00397006
after टेबल 0.00063765
70-75 75 0.00311883
mostly भीनी 0.00426718
They दिखता। 0.000751138
offspring आनुवंशिकी 0.456146
Gaina गैना 1
just टेबल 0.00221459
doctor डॉक्टर, 0.0369712
After हरितक्रांति 0.00279111
this रहेगी 0.000297381
which हरितक्रांति 3.61331e-06
be रहेगी 6.07137e-05
lime वंशीय 3.15918e-05
should टॉप-10 0.000281508
will रहेगी 0.00301818
stopgap कामचलाऊ 1
suggested वंशीय 0.108762
septal वंशीय 1
undertaken. वंशीय 0.262711
on रहेगी 2.22711e-07
being टॉप-10 0.000173463
The प्राकृतिक 8.58859e-05
with प्राकृतिक 2.92211e-08
walks रात्रि 1
green हरितक्रांति 0.00727185
this दोगे 0.000216409
which तकसीम 0.00026697
Parineeti's लेडीज 1
This तकसीम 0.000541935
comes NULL 2.47574e-05
Whatever, हो, 0.97996
will दोगे 0.000623563
match, बताओगे, 0.0852787
depend रहेगी 0.0735811
farming व्यवहार्य 0.00111023
take दोगे 0.00102217
find दिखता। 0.0285638
them दिखता। 0.0013667
bee मधुमक्खी 0.432386
See, मेहंदी 0.025242
of. उपयोगिताओं 0.151613
oils तेलों 0.841878
purpose पोलैण्ड 0.0177544
fatty तेलों 3.38732e-05
Compounds तेलों 8.18316e-05
M-45 एम-45 1
from प्राकृतिक 4.16732e-06
oils. तेलों 0.383962
parents पैरेंटस 0.0270175
usefulness उपयोगिताओं 0.115072
veg मच्छी 0.169992
By NULL 0.000256495
revolution हरितक्रांति 0.0117792
authors, साहित्यकार, 1
per यूनिट 1.66815e-07
aromatic पौधों, 0.0664812
In बीस 0.000904445
cattles 116 1
116 116 1
assumed माना 0.718918
A. साब 0.131493
you दोगे 4.12002e-06
daily प्रतिदिन 0.192068
tell. किस्सा 0.639239
arouse पाया, 0.000157392
kg. 2,500 0.000252047
will बढ़ायेगा 0.000312059
older पुराना 0.880575
woman गर्भवती 0.0324658
between तकसीम 0.00225975
threats. धमकियों 1
its बढ़ायेगा 0.000489439
whereby अंतरण 0.00963056
increase बढ़ायेगा 0.00110153
20 बीस 0.0322893
2,500 2,500 1
skinned. धुली 1
fetival सेक्रेन्यी 0.00184022
started सुलभता 0.00124573
skinned धुली 1
Today's फ़िल्माई 2.31437e-05
Bio जैव 0.930466
without बोकर 0.00998946
formed बने 8.90735e-06
foods ईसी) 2.67054e-06
The फेक 2.52987e-05
him सोने-चाँदी 0.00289227
choti चोटी 1
se चोटी 1
north उत्‍तर 0.0154114
go साब 3.25096e-07
harm शास्‍त्र 0.000192365
returned पैरेंटस 0.120735
includes पशुधन, 0.000383807
certifying ईसी) 3.75079e-06
EC ईसी) 1
children बच्चे। 0.00426849
The नीलगिरीज़ 7.3864e-08
but लोहार 0.000799184
windows खिड़कियाँ 0.23219
tying बांधकर 0.0637292
getting सुलभता 0.00167371
superstitions अंधविश्‍वासों 1
was नीलगिरीज़ 8.50115e-05
left लव 0.00477899
painting. रमता 0.34835
, निकलो, 4.98511e-05
itself. टेबल 0.0103328
someone रोज़ी 0.0916082
applied बेसन 0.0214703
' 'कमपोस्ट 3.82526e-07
available सुलभता 0.00249616
of हिस्से 3.83683e-09
from से, 0.00779573
other हिस्से 0.0024597
Scheme एस) 0.0239062
this करूँगी। 0.000121079
my बदलेगा 0.000373267
will करूँगी। 0.000390856
downs दूकानें 0.353463
loans. बमुश्‍किल 0.140536
There बीटी 0.00182905
has हिस्से 0.000654224
enjoys रमता 0.299925
country. बीटी 0.00704579
well "केलिप्टस" 0.0042399
against बफर 0.00989746
Go जाओ 0.550557
facing NULL 0.00053788
everyday प्रतिदिन 0.65862
easily. सुलभता 0.014924
talkie 1927 0.471838
at x 0.000672903
dangerous. भयानक 0.584011
' नीलगिरीज़ 0.000603488
quintal. 2,500 8.46706e-05
land हिस्से 0.00192853
done. NULL 0.000135406
don't निकलो, 0.00280965
their अन्वेषण 0.000253219
was अन्वेषण 3.10501e-05
whole मुरझा 0.00820885
agricultural हिस्से 0.00126273
I करूँगी। 0.000248234
M-45. एम-45 1
continuously. कोरेशन 0.284973
have पककर 7.17823e-06
Conversion रूपान्तरण' 1
low हिस्से 0.0118154
do करूँगी। 0.000723607
get पककर 0.00315535
proper चयन, 0.0057855
entire मिलेनियर' 2.13913e-08
wealth धन 0.369006
its पककर 0.00126384
didn't बताया 7.79953e-05
by पककर 0.00100459
tasty. पुराना 0.382702
that तौला 7.15417e-05
bulls पुट्ठे 0.143574
signature पैरेंटस 0.000695967
sand's रेत 0.178589
people तौला 0.000564434
From से, 0.0321797
grains. हरितक्रांति 0.0403469
Raychur रायचूर 1
lentils, ऊष्‍ण 0.106773
, तौला 3.20348e-05
BT बीटी 1
author. गढ़ा 0.57204
on तौला 7.4268e-05
revolution. हरितक्रांति 0.0683585
be डाले 7.89284e-05
no अन्वेषण 0.00287662
natural प्राकृतिक 0.933655
happened हिस्से 0.0310017
answer दोगे 0.0914392
mad सोने-चाँदी 0.0869875
unharmed सही-सलामत 1
Crop NULL 0.000385699
Nilgiri नीलगिरीज़ 0.0416847
put डाले 0.0314457
become पककर 0.00322876
There तरीके 0.000347705
in तरीके 3.97376e-08
back. बंद 0.179528
that? महसूस 0.0968846
are पसई 1.19398e-09
all डाले 9.514e-05
wings आठ-आठ 0.0494501
It लैला! 0.000963476
way व्यवहार्य 0.00349982
has तरीके 1.1759e-05
is 130-145 9.9699e-08
several भीनी 0.00258396
Crore 51 0.00545478
saves प्रतिदिन 0.258265
parts हिस्से 0.0208458
back. पुट्ठे 0.033373
worldwide 5000 0.653663
5000 5000 1
a 130-145 0.000302629
Original (फाउंडेशन) 1
(foundation) (फाउंडेशन) 1
our तौला 0.000573271
matter उमर 0.00629882
ready पककर 0.000303329
shut बंद 0.456122
predefined पोलैण्ड 1
helped. पोलैण्ड 1
right, जानबूझकर 0.0584546
stopped सोने-चाँदी 0.0258137
hence मुरझा 0.0816156
at सेलेब्रिटी 0.00040062
fault. सच्ची, 0.578484
part हिस्से 0.0261476
are गायें 9.01419e-05
wife, व‍क्त 1
The 76 1.33272e-08
with 76 0.00023743
listen सुनना 0.0691227
1885-86 1885-86 1
prevailed. 1885-86 0.32619
are थोड़े, 2.9485e-05
about थोड़े, 0.000657109
table टेबल 0.16035
today's रहेगी 0.117052
that देखना 2.95449e-05
ripening पककर 0.160573
look देखना 0.124191
to देखना 3.13715e-08
words उमर 0.0279038
India's हिस्से 1.22615e-06
facing प्राकृतिक 0.00132984
2.5 बफर 0.0347291
hectare हैक्टयर 0.00914536
end. बदलेगा 0.0316086
". "केलिप्टस" 0.00817849
village 'कमपोस्ट 0.00690978
They पसई 0.00186497
Hazaribagh हजारीबाग 1
dirty शाहकार 0.0957571
ways तरीके 0.251713
disgrace? डरती 0.749556
techniques तरीके 0.0957649
become थोड़े, 0.000397227
for बाड़ी 7.14254e-05
lands उत्‍तर 0.0297466
played रविन्द्रनाथ 0.00830263
you थोड़े, 0.000152505
your दोगे 0.000852368
else, रोज़ी 0.498598
more बाड़ी 0.000205423
than बाड़ी 0.000562658
way. तरीके 0.0637184
people लेंगे 0.00155005
economy जाता, 0.0103928
will लेंगे 0.000956347
Cloudy बदली 1
F, 0.8531) 2.46152e-05
0.8531),(availability 0.8531) 1
Was रोज़ी 0.00738394
0.15-0.18%), 0.8531) 1
see देखना 0.0598071
us खात्मा 0.0045842
The लम्बा 1.13492e-07
fades मुरझा 1
with समर 0.000422248
understanding बढ़ायेगा 0.0207893
escaping बच 0.229112
frigian, फ्रीजियन, 1
lay मिट 0.144328
practical. व्यवहार्य 0.130592
knowing करूँगी। 0.042479
significant बाड़ी 0.00173735
The कीचड़ 2.31413e-05
room गर्भवती 2.59554e-06
designed? मेहंदी 1
Maya, कन्या, 0.609249
Achhut कन्या, 1
kanya, कन्या, 3.29694e-05
be व्याधियों 0.000176075
get व्याधियों 9.70411e-05
it कीचड़ 8.41218e-05
meet नगरीय 0.0175457
do लेंगे 0.00117978
weather, खिड़कियाँ 0.288573
(now (अब 1
by व्याधियों 0.00019199
lavender भीनी 4.01612e-05
5% बमुश्‍किल 1
long लम्बा 0.114559
shadow अमलतास, 0.00039332
flour बेसन 0.314425
methods तरीके 0.000721706
1 हिस्से 0.0263975
happen बदलेगा 0.00924555
occasions सगुन 0.333718
kharif, खरीफ, 1
there उड़ने 0.000137946
We देखना 0.0139546
Gopal गोपाल 1
been शाक-सब्जियों 0.000425087
unit यूनिट 0.190271
providing तरीके 0.0835481
has शाक-सब्जियों 2.13543e-09
workable व्यवहार्य 0.158965
at उबलते 1.10745e-05
fat लेंगे 0.246644
realizes महसूस 0.29938
they उबलते 0.000852493
no उड़ने 0.00219172
Ranichauri रानीचौरी 0.937159
Thus, खिड़कियाँ 0.024486
consists पष्‍टम 0.00123918
is निकाला 2.06369e-07
government शादियों 0.00385242
affected व्याधियों 0.0148997
can निकाला 0.00376247
be निकाला 0.0010041
he टैक्सी 0.000961387
putting डाले 0.0208775
rain बाड़ी 3.16985e-07
With शाक-सब्जियों 0.00773864
rainfall. बाड़ी 0.0134502
continue रहेगी 0.226197
Alright, चीर 0.0905945
it समुदायों 0.000256461
should समुदायों 4.66924e-08
When उबलते 0.00403203
vegetables. शाक-सब्जियों 0.0419495
way तरीके 0.0636752
needs व्याधियों 8.03218e-05
slanting पुट्ठे 0.442538
Mahabharata महाभारत 1
I रफी 1.43443e-06
appealed NULL 0.000904361
, चढ़ने 5.69949e-05
just मुट्‍ठी-भर 0.00222858
missed. महसूस 0.996306
over शाक-सब्जियों 0.00464586
diseases व्याधियों 0.0160801
from निकाला 0.000273556
done शाक-सब्जियों 0.000192882
gets पककर 0.0116602
Akbar अकबर 0.625792
necessary समुदायों 0.000835898
pregnant गर्भवती 0.0996
rest लेंगे 0.00965878
get प्रेरणा 0.0027864
out देखना 0.00714091
obtained डाले 0.00413711
humans. नाल 0.00110527
full मुट्‍ठी-भर 0.0129946
grows कीचड़ 0.00791702
sheds. खिड़कियाँ 0.999766
results अन्वेषण 0.0384687
broadcasting. सामंजस्य 8.94988e-05
that खेले 5.40842e-05
share हिस्से 0.0263111
run, चलाया 0.000508663
Rachel रशेल 0.999847
been 1979 0.000236875
Everybody डॉक्टर, 0.0535044
Rachael रशेल 0.999384
chief 1979 0.0166766
are उत्तरांचल 2.02677e-07
have उत्तरांचल 1.10003e-08
from प्रेरणा 5.12134e-07
has 1979 8.84066e-05
caused तकसीम 0.0687334
getting चढ़ने 1.09309e-05
kg. 2,900 0.0310128
selection चयन, 0.061976
twenty बीस 0.454316
mud कीचड़ 0.173628
lakes झीलों 0.497499
One 'नो 0.00734181
expected 1979 0.0158927
2008 मिलेनियर' 0.0630166
cinema पुराना 0.0166705
terror बदली 0.547119
In ठहराव 8.72403e-06
now. करूँगी। 0.0224045
2 2,900 0.00998166
very खेले 0.000207988
Advanced कृषि-विभागों 5.12784e-05
who 1979 0.00131781
quickly, एस) 0.440727
Indian उत्तरांचल 0.000114789
has ठहराव 7.63618e-05
with लगाई। 0.000146252
and लगाई। 3.00179e-05
next सहिष्णुता 0.00666742
a टुकड़ें 5.61893e-06
Mao माओ 1
withers. मुरझा 1
with तिलहन 0.000567415
retrospection पुनरावलोकन 0.975771
maker's पुनरावलोकन 0.515365
don't खेले 0.00240643
split बेसन 0.00931537
right? सुनना 0.239639
worry निकलो, 0.0535866
loans. उपक्रमों 0.187376
hear सुनना 0.202003
destroy खात्मा 0.0148365
Oil निकाला 0.166102
s. नीलगिरीज़ 1
extracted निकाला 0.568157
stories घिस 0.0241534
farms ठहराव 0.00785683
It तिलहन 0.000860738
shleshmi. श्‍लेष्मी 1
on थर्सडे 0.000222068
using निकाला 0.0174848
work. लेंगे 0.0242943
him. खात्मा 0.00679064
ever से, 4.76808e-05
In सप्‍ताह 0.000868888
Ranichauri. रानीचौरी 1
share. हिस्से 1
ways, बिछड़ते 0.146536
found. जाता, 0.0200192
discussion, शास्‍त्र 0.798201
an आरी 0.000974719
sciences शास्‍त्र 0.442577
for खातिरदारी 4.71463e-05
found सहिष्णुता 4.93763e-06
him लोहार 0.0109928
there खातिरदारी 6.12617e-05
it रोक 0.000534218
border तकसीम 0.0736847
prior पककर 0.657101
Garba गरबे 0.884554
length. लम्बा 0.29004
you अनाप-शनाप 1.42622e-08
Nothing बदलेगा 0.0203281
iconography शास्‍त्र 1
tickets हीरोज 0.132867
see अनाप-शनाप 0.00263183
fact थोड़े, 0.00372057
regarding खातिरदारी 0.00547097
factories मुट्‍ठी-भर 0.0623506
together खात्मा 0.0127909
weeks. सप्‍ताह 0.491588
wouldn't करोगे 0.0685994
Uttaranchal उत्तरांचल 1
pulses. तिलहन 0.000610616
Among उत्तरांचल 0.0213034
take निकालें 0.000820944
under उत्तरांचल 0.00341444
soldiers सैनिकों 0.554883
such सप्‍ताह 6.07723e-08
import. तिलहन 0.160659
equivalent समकक्ष 0.0560853
anchoring संभालेंगे। 0.999809
escaped? बच 0.337491
markets. समकक्ष 0.000571777
them 1979 0.00141003
our खातिरदारी 0.000381772
blazing मानिन्द 0.029334
leave. सुनना 0.995604
The युगप्रवर्तक 3.79615e-05
India टॉयलेट- 0.000208919
coordinator सामंजस्य 1
Majority उत्तरांचल 0.0193247
cultivation उत्तरांचल 0.00251354
from निकालें 4.14683e-05
week. सप्‍ताह 0.525232
fulfilled तिलहन 0.0974388
anything खातिरदारी 0.012118
share 76 0.0103841
, आखरी 0.000193242
live समर 0.0242519
which तकनीकों 0.000763896
can पेटेंटीकृत 0.000225796
76 76 0.675097
us पेटेंटीकृत 0.0037492
at पेटेंटीकृत 0.000283336
agricultural-departments कृषि-विभागों 1
cows गायें 0.0667693
plants. सप्‍ताह 0.00153311
have इनकी 0.00120813
their इनकी 0.0527465
eats अनाप-शनाप 1.72822e-05
curing NULL 0.00341405
providing समकक्ष 0.0055736
Amaltas, अमलतास, 1
internal रोक 0.182142
price. पेटेंटीकृत 0.00826404
seen. यूनिट 0.12741
raised ठहराव 0.0720556
excited मिलेनियर' 0.111225
through तकनीकों 0.00460227
seasoned लगाई। 0.15444
from निकालो 4.08943e-05
Intervention एस) 1
(MIS), एस) 1
Sixth पष्‍टम 1
Category-This पष्‍टम 1
ripening निकालें 0.00815328
ever. दोगे 0.0476511
fire चढ़ने 0.0487665
quintal क्‍विन्टल 0.182582
well खेले 0.0037104
will अनारकली 6.88935e-06
high पेटेंटीकृत 0.00134856
Roji रोज़ी 0.728767
month सप्‍ताह 0.0163305
seeds 10.4 0.000884402
Roji. रोज़ी 1
value समकक्ष 0.0050803
Due चढ़ने 0.00408789
from 180-190 6.66092e-05
Henry 1979 0.0952027
retained रहेगी 0.394956
techniques तकनीकों 0.250999
leadership, नेतृत्व 1
division तकसीम 0.0676803
They पेटेंटीकृत 0.000134142
needs अल्पकालीन 6.06192e-08
to कराने 0.000899794
plants, पौधों, 0.348313
make कराने 0.00909364
The होगा 4.66116e-09
this होगा 2.66921e-08
They इनकी 0.0178656
buffer बफर 1
stock. बफर 1
have होगा 0.0191761
be होगा 0.0191101
will होगा 0.0884018
is कुंसआ 4.37655e-07
Let बच्चे। 0.00715532
nothing निकलो, 0.020829
emphasized अल्पकालीन 0.00231049
oranges सन्तरे 0.463857
lights. लाईटें 1
play खेले 0.00148644
during होगा 1.25531e-06
nothing हिस्से 0.118037
catch NULL 0.000227349
Its इनकी 0.00869985
Bhagwandas मोहनसिंह 0.0113682
Mohansingh. मोहनसिंह 1
Heros, हीरोज 1
asked तिलहन 6.21401e-06
than होगा 9.94525e-06
from कराने 2.07041e-08
Did मिला? 0.0125315
cut आरी 0.00501595
danger ठहराव 0.0480261
contain 10.4 0.0227594
fear उड़ने 7.19187e-06
since जसवंत 0.00460546
mild भीनी 0.402601
fascinating. भीनी 1
apiculture पौधों, 1
are अलग-अलग 0.000176827
getting कराने 0.0122424
have अलग-अलग 0.00120519
together खेले 0.00807815
matured पककर 1
usual पककर 0.659767
timing. पककर 0.533182
product अल्पकालीन 0.00634015
require कराने 0.104216
Miller 1979 0.181788
do. 1979 0.0768605
from खाये 3.34376e-05
Huge बीटी 1
flat उत्‍तर 0.0634374
has 728 9.84939e-05
stop रोक 0.259699
out निकालें 0.00132927
arranged कराने 0.175552
Due तिलहन 0.00824006
alcohol सन्तरे 6.47947e-06
alone. साब 0.0901904
nation. हिस्से 0.183525
given होगा 4.25193e-07
rupees. 728 7.59868e-07
because क्योंकि 0.452284
worth 728 0.014877
short अल्पकालीन 0.0147014
become 728 0.000691602
large खाये 0.00194079
becoming पककर 0.0406617
proportion)is सामंजस्य 4.14865e-05
To रोक 1.7321e-05
grains खाये 0.00174022
stability ठहराव 0.0511468
Production अल्पकालीन 0.0167975
calyptus "केलिप्टस" 1
lid "केलिप्टस" 1
Cows गायें 1
bred गायें 1
Milk. गायें 1
happen निकलो, 0.0123997
elements लैटराइट 0.00358872
Within सप्‍ताह 0.391908
weeks सप्‍ताह 0.569479
one समझे 0.00147044
here पालना 0.00268215
transplanted x 0.104825
Because क्योंकि 0.269486
Oh, आहा, 0.00661658
found उत्तमतर 0.00130791
produced खाये 0.00226858
out निकालो 0.00132838
' वाला' 0.000475714
attack, मुरझा 1
and उदासीन 6.15547e-05
different अलग-अलग 0.123964
better उत्तमतर 0.00542669
, उदासीन 5.56509e-09
Thus अलग-अलग 3.21299e-06
old जसवंत 0.00489626
travelogue यात्रासाहित्य 0.117009
was धमाकों 0.00038501
groups समुदायों 0.0923766
technology तकनीकों 0.0409341
1979 1979 0.000402729
Their इनकी 0.08751
rate खरीदनी 0.00342844
exporting कराने 0.00102937
considered पालना 0.00591931
were इकाईयों 0.00230192
transplanting डाले 0.240384
draining डाले 0.312667
match, आहा, 0.0634018
weak सप्‍ताह 0.0297333
water, कीचड़ 0.123257
I समझे 1.98639e-08
part खाये 0.00104284
patented पेटेंटीकृत 0.224379
considered समझे 0.00878158
In पठारों 9.0607e-05
parts अलग-अलग 0.0141622
provide कराने 0.212089
bhi यारो' 0.634686
Darupadi चीर 0.373592
dealing समकक्ष 0.173102
Akshat सगुन 1
reduce सुभेद्यता 0.00748589
canal मलेरिया 0.0486465
loans समकक्ष 0.00894405
used समझे 0.00135519
this आढ़ती 0.000104819
gifts. बिछड़ते 1
yaaro यारो' 1
has मार्क्सवादियों 9.92306e-05
money आढ़ती 0.0161644
loan समकक्ष 0.00372535
decrease होगा 0.0790539
come आढ़ती 0.000647381
purchase खरीदनी 0.0205089
states. अलग-अलग 0.065673
youth 'कमपोस्ट 0.0718379
term अल्पकालीन 0.0131321
this रक्स, 0.000101386
this, उमर 0.00768328
technologies तकनीकों 0.449359
boiling उबलते 0.489684
float उबलते 1
here आढ़ती 1.85073e-08
The फ़सल 0.000111457
towards सुभेद्यता 0.00164714
Actually, म्युनिसिपल 0.139421
when जसवंत 0.000862031
'. वाला' 0.0176012
The वास्तविक 7.47415e-05
listen? सुनना 1
Knead बने 0.0727016
with चलो। 0.000712211
reality वास्तविक 0.106698
pharmacuticals फार्मास्यूटिकल्स, 1
obtained 180-190 0.00210374
up जल्दी 7.95548e-07
get जल्दी 0.00516492
everybody, सोने-चाँदी 0.333175
it जल्दी 0.000303846
determined अलग-अलग 0.165822
were शस्य-जलवायु 7.8175e-07
any समझे 6.9472e-05
response. रेस्पोंन्स 1
getting वर्षाकालीन 0.00301074
It जल्दी 0.00116258
at बचना 0.000919924
wilts. मुरझा 1
preparation निकालें 0.00718077
seizing अन्वेषण 0.411033
fertilizer उत्तमतर 0.00269536
climatic सुभेद्यता 0.00857092
-LRB- जल्दी 5.13435e-07
too भुलाया 0.011715
shall खेर 3.09213e-05
wealth. धन 0.619152
soon जल्दी 0.291092
contains वास्तविक 0.049209
while शस्य-जलवायु 0.00146417
very जल्दी 0.00445055
on निर्माण, 0.000444137
top इकाईयों 0.0492473
become जल्दी 1.94704e-05
was निहितार्थ 8.2888e-06
ripen पककर 0.244263
this बौनी 0.000289574
regions. इकाईयों 0.0349201
its निहितार्थ 4.58114e-06
and मांगता 3.27249e-05
were बौनी 0.00143329
interest दिखाई। 4.91787e-06
comedy कॉमेडी 0.939665
actual निकालो 0.016764
crops. फ़सल 0.023627
Comedy कॉमेडी 0.447295
long शस्य-जलवायु 0.00307083
he बचना 1.16052e-05
techniques. तकनीकों 0.157482
action रोक 0.194018
clock सोया? 0.070551
from बचना 1.98323e-08
haven't सोया? 0.069501
slept? सोया? 1
have धज्जियां 0.000296898
mother बसाई 0.0264164
Agreed माना 0.000166062
movements आंदोलनों 0.187868
vendors. आंदोलनों 0.000263241
plateau पठारों 0.367073
been धज्जियां 0.000361043
and ग्रंथियों 7.60826e-06
related फ़सल 0.00910116
has ऑल 0.000953861
Amemwa मे'म्वा 1
dateless मे'म्वा 0.905036
diary: मे'म्वा 0.127372
crops फ़सल 0.0110576
all ऑल 0.00316083
by-product जाता, 1
monsoon जल्दी 0.0523327
its ग्रंथियों 0.000956835
early जल्दी 0.445805
Khan. कबीर 0.000285871
team होगा 2.45488e-06
from मांगता 2.57131e-07
understand समझे 0.0131888
division बाड़ी 0.0337231
chickpeas, बेसन 0.24763
burnt धमाकों 0.00420116
benefitted होगा 9.36808e-05
dwarf बौनी 0.61185
about झलक 0.00249649
climatic शस्य-जलवायु 1.01752e-05
Food भोजन 3.45095e-05
food भोजन 0.190766
make झलक 0.00270442
credit. अल्पकालीन 1
by झलक 0.000213671
become टूर 0.000919437
skill अनोखा 0.201886
perishes जल्दी 9.87738e-05
soon. जल्दी 0.00459153
about अच्छी-अच्छी 0.00214916
will अच्छी-अच्छी 0.000573086
Kabir कबीर 1
speaking झलक 0.129022
then अच्छी-अच्छी 1.09586e-07
His इनकी 0.0343653
was मालगुडी 5.01069e-06
Bobo. बोबो 1
psychologist बोबो 0.999983
I टूर 1.20696e-07
she समर 0.060243
carried उदासीन 0.0135144
areas. मलेरिया 0.0105902
good अच्छी-अच्छी 0.00116927
money फिरंगियों 0.000474083
The प्राप्‍त 1.54321e-06
filmed फ़िल्माई 1
get प्राप्‍त 0.111286
The पेंटिंग 0.000117778
exploration अन्वेषण 0.99925
visible. अन्वेषण 0.000178528
900 2,900 0.267436
situations अलग-अलग 0.0958559
October विजयलक्ष्मी 0.0150687
have पेंटिंग 0.000714119
year प्राप्‍त 2.86264e-07
Malaria मलेरिया 0.0140861
spreads मलेरिया 0.0963325
we अच्छी-अच्छी 0.00182953
away बचना 0.00854164
week सप्‍ताह 0.717495
sector. प्राप्‍त 1.19483e-06
was पत्तों, 0.000196653
which पेंटिंग 1.8044e-07
To सुभेद्यता 0.00188435
keep भोजन 1.4359e-06
piece टुकड़ें 0.301316
placenta नाल 0.51062
from प्राप्‍त 0.0183579
separating मेंथालाइज्ड 0.238593
Your जब-तब 0.00786477
worth 'पचास 0.0118613
ready. पककर 1.91555e-06
ventures उपक्रमों 1
motivation प्रेरणा 0.574501
be एच 0.000329667
will एच 0.00191798
Laterite लैटराइट 1
laterite लैटराइट 0.196725
' 'पचास 0.000462516
A 'पचास 0.00245345
plant 'पचास 0.000729852
fifty 'पचास 0.0838154
rupees' 'पचास 1.15803e-05
mango नीबू 0.0270956
an स्‍त्रोता 4.72306e-06
ground स्‍त्रोता 0.00747703
by सत्यजीत 9.82056e-05
south मालगुडी 6.92021e-06
ailments. व्याधियों 0.102883
useful अच्छी-अच्छी 0.00162118
meaning निहितार्थ 0.0127489
has स्‍त्रोता 5.17107e-07
found प्राप्‍त 1.84875e-07
130-145 130-145 1
proper वर्षाकालीन 0.000585719
In मौजूदा 1.46038e-07
has रण 9.93722e-05
amongst पेंटिंग 0.244335
All ऑल 0.0179412
food. भोजन 0.627867
behind बौनी 0.0147443
may जल्दी 4.32451e-05
The हुआ 1.8064e-08
a यथार्थवादी 1.71175e-06
There हुआ 1.47601e-06
have हुआ 5.55844e-05
I झांक 2.68668e-07
own अलग-अलग 0.0197733
with पंखधारी 0.00071246
achieved प्राप्‍त 0.16825
was हुआ 0.00543574
been हुआ 0.10206
it हुआ 3.82346e-07
being यथार्थवादी 0.000624876
put हुआ 4.35357e-07
current मौजूदा 0.281639
has हुआ 0.0433726
sale रोक 0.000320645
there हुआ 0.00517251
through झांक 0.00113586
water स्‍त्रोता 0.000556015
other वरन 0.00177737
only वरन 9.84791e-09
at वरन 0.00104512
Soil उदासीन 0.0569193
but वरन 0.0094687
must धज्जियां 3.62838e-05
financially व्यवहार्य 1
yields प्राप्‍त 0.000642705
this मूवमेंट 0.000243307
, अविरल 4.73201e-05
you. निकलो, 0.00197712
exciting सामंजस्य 0.209885
fast जल्दी 0.215581
been अविरल 0.000134182
stopped रोक 0.313679
resistant अवरोधी 0.381847
Oil प्राप्‍त 3.70611e-06
8th विजयलक्ष्मी 0.109827
chief मूवमेंट 0.027222
present मौजूदा 0.0931943
Livestock पशुधन, 0.189434
are कॉपी 5.3717e-09
worn घिस 0.249849
mentholized मेंथालाइज्ड 1
At मौजूदा 0.0177915
taken. सुभेद्यता 0.0211544
helped एच 0.183993
year बोरो 4.65776e-08
real वास्तविक 0.302977
wealth, पशुधन, 0.736602
A वरन 0.00746818
with परिपूर्ण 0.000711888
situation मौजूदा 0.00994118
talk अच्छी-अच्छी 1.2828e-05
are पास-पास 2.78647e-05
Rabindra रविन्द्रनाथ 0.145522
Nath रविन्द्रनाथ 0.403491
if पास-पास 0.000703069
round बोरो 0.0116456
who मूवमेंट 0.00208249
commended. हुआ 6.82645e-05
benefit पास-पास 2.04189e-07
technologies. तकनीकों 0.320994
then पास-पास 5.25499e-09
lonely मानिन्द 0.165918
stops रोक 0.163557
by पास-पास 5.6761e-05
it. पाले) 0.00223545
if गड्‍ढों 0.000967525
In गड्‍ढों 1.08774e-05
ailment. व्याधियों 0.63416
reduced. हुआ 1.2173e-05
they गड्‍ढों 0.000425798
there गड्‍ढों 0.000105781
trading होगा 5.18462e-06
evaporation उड़ने 1
sector प्राप्‍त 9.76491e-06
Greece सन्तरे 0.173272
olives सन्तरे 1
wanted कागती 0.0186345
has दुहरे 6.69395e-05
compresses ग्रंथियों 1
gland ग्रंथियों 1
silk. ग्रंथियों 0.37727
separated अलग-अलग 0.0201236
then, से, 0.331219
actual वास्तविक 0.788342
to तड़पना-तड़पाना 2.51309e-08
stage अविरल 0.00192928
wood. आरी 0.140416
grass शस्य-जलवायु 2.72094e-05
different. अलग-अलग 0.164848
and रंगकर्मी 5.92926e-05
wanted देखना 0.0803926
things. अच्छी-अच्छी 0.104128
been मेंथा 0.00166518
successfully मेंथा 0.12997
Currently स्‍त्रोता 0.0113205
Asif's लव 1
Love लव 0.14537
also. वरन 0.00787936
has मेंथा 0.000374109
various मानचित्रों 0.00420704
some दरख्त 0.00243823
In मानचित्रों 0.000502684
win टॉप-10 0.0128768
Currently मौजूदा 0.169614
places वरन 0.0106278
lenders आढ़ती 0.212452
consumed. खाये 0.403388
-RRB-. बोरो 0.0258086
due यथार्थवादी 0.00228325
known हुआ 0.107622
cab निकाला 1
present इकोनॉमिक 0.00436983
hidden निहितार्थ 0.0837515
In भूमिव्यवस्था 0.000226478
UP आढ़ती 0.0380135
Katik, पसई 0.991503
Pasai. पसई 1
ho हो' 0.383551
quality दुहरे 7.81352e-06
made भालचंद्र 0.000567139
Sorghum 10.4 0.0411812
such मानचित्रों 0.00129679
initiated सत्यजीत 1.96112e-05
there भूमिव्यवस्था 0.000138205
cumin लगाई। 0.0389728
narrating घिस 1
your झलक 0.00186107
doing मेंथा 0.0177969
understood निहितार्थ 0.0414781
separately अलग-अलग 0.0347228
above मूवमेंट 2.19109e-05
great वरन 0.0109245
obtained प्राप्‍त 0.796314
Planning शस्य-जलवायु 0.25773
quickly जल्दी 0.000794535
cloth. टुकड़ें 0.00151248
farming. मेंथा 0.0144286
land भूमिव्यवस्था 0.000570979
cultivated मेंथा 0.00201608
weather पाले) 0.003035
system भूमिव्यवस्था 0.00175712
minimum निम्नतर 0.00847048
for निम्नतर 3.50712e-05
so अलविदा 0.0010015
chilly पाले) 0.0276236
sown लगाई 0.0130604
that अंदाज़ 0.000219668
ended. रण 0.0616026
it दावे 6.67941e-05
food. परिपूर्ण 0.0198447
Extreme पाले) 0.0859452
team, टीम, 0.12786
under मेंथा 5.98223e-07
variety. अवरोधी 0.0279823
oil दुहरे 9.33433e-08
writing, साब 0.751943
R साब 1
field पास-पास 0.00280543
huge दावे 0.00710244
from निम्नतर 5.38848e-07
had अलविदा 0.000512698
yourself, से, 0.00945865
position पाँचवाँ 0.0189399
crops प्रौद्योगिकीय 4.33126e-07
had दावे 0.00116206
made दावे 0.000857974
plants निम्नतर 0.000602694
leaf-spot अवरोधी 0.00482241
oil-seeds तिलहन 1
it खिलायें 3.88623e-05
by खिलायें 8.35558e-05
again रॉकस्टार' 0.00323524
cultivated लगाई 0.0223349
occupies पाँचवाँ 0.0343624
using मानचित्रों 0.00942041
with बटोरते 0.00023694
adversely पाले) 0.0533599
entertaining. दिखता। 1
their बटोरते 0.000463823
plateaus पठारों 1
sowing. वर्षाकालीन 3.11577e-05
fertilizer? डाले 1
could लगाई 0.000107561
, रिपोर्ट, 9.62506e-05
produce. प्राप्‍त 2.43922e-05
' रोको' 0.00115708
marry करूँगी। 0.160321
Initially नीबू 0.0014042
The ज़िन्दगी 3.6447e-05
fifth पाँचवाँ 0.159348
world's पाँचवाँ 0.0318322
will ज़िन्दगी 0.000627756
Kisama गांव। 1
' रॉकस्टार' 0.00093286
war रण 0.0146427
there Board 0.000184541
India Board 0.000708054
also स्राव 0.000129491
obtained. प्राप्‍त 0.423499
absorbs अविरल 0.0161254
testing स्‍त्रोता 0.0153791
reform प्राप्‍त 2.03792e-06
fist मुट्‍ठी-भर 0.20101
way. अंदाज़ 0.0189927
forests निम्नतर 0.0146874
cars टॉप-10 0.0859602
too पास-पास 0.00679266
top-ten टॉप-10 0.995482
, फेफड़ों, 0.000164572
whatever प्राप्‍त 4.03838e-06
free स्वतन्त्र 0.020704
obtained बोरो 0.000252663
garbage कचरा 0.396636
collection. कचरा 1.14367e-05
demonstrated अलग-अलग 0.447496
becomes मुलायम 0.013206
soft. मुलायम 0.451745
Laila, लैला! 1
Utera उत्तमतर 0.22482
placement उत्तमतर 1
significant Board 0.00345875
superior उत्तमतर 0.625102
that, अनाप-शनाप 0.0214587
Research इकोनॉमिक 0.0125638
be वरदान 0.000353689
jowar. अलग-अलग 2.60107e-05
a वरदान 0.000876774
close पास-पास 0.0333489
, अशफाक, 2.38913e-06
prepare आहूजा 0.069364
The दयनीय 1.00176e-09
manner. कागती 0.652123
featured मिलेनियर' 0.0867988
He (पश्चिम 1.10496e-05
There दयनीय 0.000543742
has वरदान 0.000258475
increased, ठहराव 1
require स्राव 0.0144647
up आइए। 0.00625931
was दयनीय 0.000196204
get आइए। 1.3206e-05
millionaire मिलेनियर' 0.991747
during दयनीय 0.00128952
it आइए। 0.000187124
have बताए 0.000290786
nor क्रेडिट 0.0848123
' 'लीडर' 0.00250201
The निष्प्रभावी 1.75747e-06
source. स्‍त्रोता 0.177185
30-35 खरीदनी 0.401016
kilo. खरीदनी 2.88412e-06
play भालचंद्र 0.00297258
Shabana शबाना 1
affects पाले) 0.0150922
its बताए 0.00186508
are- टॉयलेट- 0.418171
training रण 0.00745086
more दयनीय 0.000318696
for बताए 0.000423823
ambiance बच्चे। 1
tall. लम्बा 0.304486
winter स्वतन्त्र 0.0144467
lemon नीबू 0.155038
exhibited दिखाई। 0.0790854
credit क्रेडिट 0.0616445
fast. जल्दी 3.01495e-05
muck कीचड़ 0.999237
ignored. अंदाज़ 0.0951999
to डालना 5.52902e-07
timely वर्षाकालीन 0.119467
if बताऊँ, 0.0010774
after डालना 0.00259965
fall मेंथा 4.4498e-05
happens, व्याधियों 0.0219613
protected व्याधियों 1
it डालना 6.28484e-09
into डालना 0.00874886
put डालना 0.0296564
told बताए 0.0275369
Boro बोरो 1
should बताऊँ, 0.000326604
prestigious पालना 1.29185e-05
acquainted रफी 0.406495
vacate कराने 0.00203001
granaries. कराने 0.277186
municipal म्युनिसिपल 0.567532
pickles नीबू 0.0487512
while डालना 0.00375489
dull उदासीन 1
alkaline. उदासीन 0.379934
encouraging दावे 0.020115
here. आइए। 0.0102674
production उत्पादनों 0.000461707
Chayna 180-190 0.99677
me, खात्मा 0.011365
fix निम्नतर 0.0740265
that घुनते 8.87531e-05
condition दयनीय 0.00489857
wildest नाल 0.934092
very उत्पादनों 0.000568703
Akabar अकबर 0.998879
presumptions झलक 0.484677
products उत्पादनों 0.0029484
I बताऊँ, 0.000390861
effect लगाई 3.47408e-05
rained जल्दी 0.577684
getting डालना 0.00404601
pea, लगाई। 0.0845816
nor अशफाक, 0.0232683
maps मानचित्रों 0.955618
Food खाद्य 0.523988
food खाद्य 0.396817
maps. मानचित्रों 0.879575
The ओ. 7.55654e-05
made बी. 0.00224007
them अशफाक, 0.00104455
weighed तौला 1
insect स्टीकारनिस 0.00011761
fall लगाई 0.0451042
advertising विज्ञापन, 0.13619
The विशेषताएं 0.000104878
consistently स्राव 0.176821
soft मुलायम 0.171141
are विशेषताएं 2.95666e-05
B. बी० 0.139578
is टैलेंट्यूब 1.41203e-08
claims दावे 0.192872
also टैलेंट्यूब 0.00024764
earlier जल्दी 0.000336267
here. बताऊँ, 0.000161073
nobody अलविदा 0.0196674
once रॉकस्टार' 0.0117278
to टैलेंट्यूब 1.06919e-05
labors. दयनीय 0.0463782
Ek रफी 3.78687e-05
, 1999-2000 6.84933e-08
die अलविदा 0.0102154
Rafi रफी 0.9355
, बजाएं, 0.000193242
till चलें? 0.000268581
are है,फिर 4.3972e-05
tolerance सहिष्णुता 1
generation. सहिष्णुता 0.110649
a अभिनय 0.00157406
when दयनीय 0.00107477
grains घुनते 2.40116e-08
they है,फिर 0.000539064
for अभिनय 0.000146729
edible खाद्य 0.705636
life ज़िन्दगी 0.00562438
we चलें? 0.000548743
destiny थोड़े, 0.0993565
aslo. थोड़े, 1
wonder उमर 0.193977
technological प्रौद्योगिकीय 0.25594
them डालना 0.00435602
discussion बचना 0.0291416
performance अभिनय 0.25179
bring आइए। 0.0124656
presenting अंदाज़ 0.202097
units. इकाईयों 0.76306
lull ठहराव 1
It दाँतों 0.000749604
independent स्वतन्त्र 0.0543429
district. प्राप्‍त 2.22587e-05
markets उत्पादनों 0.007453
Crop लगाई 0.0961065
rain. लगाई 0.238772
that हँ? 0.00017208
at आंच 6.4007e-07
very दाँतों 4.07341e-08
to हँ? 5.10842e-08
Ari आरी 1
has हँ? 3.85339e-07
a अनोखी 4.67184e-05
much दाँतों 0.00549944
oilseeds. तिलहन 1
If रा.वन 0.00105054
cost उत्पादनों 0.00506315
Internet विज्ञापन, 1
animation विज्ञापन, 1
visual विज्ञापन, 7.33783e-05
it Phytosocilogy 6.8678e-05
alive. स्राव 0.0112306
life. ज़िन्दगी 0.0156061
The शेष 1.408e-07
reasons बताए 0.0377929
years Phytosocilogy 0.00153911
your रिपोर्ट, 0.00170767
back Phytosocilogy 0.00540019
gave अभिनय 0.0495538
snowfall पाले) 7.48681e-06
you हँ? 2.85777e-08
? अजमेर 0.00569081
meeting सीआईडी 0.0115403
pathetic दयनीय 1
such रा.वन 0.000633553
10.4 10.4 1
continues फ़सल 0.175131
Pakistan आंच 0.0134598
domestic ग्रीनहाउस 0.00540588
up. बताए 0.089489
whole लगाई 0.020626
given हँ? 1.09713e-08
pits गड्‍ढों 0.0401935
tomorrow खेले 0.0037334
and आनन-फानन 1.49825e-07
crops, स्वतन्त्र 0.0415918
menthol मेंथा 0.395658
, आनन-फानन 6.09817e-09
In आनन-फानन 0.000150863
out 46 1.40402e-07
movement. रोको' 3.32743e-06
do ग्रीनहाउस 0.000428183
helps दाँतों 0.0617645
an हीरोइन 0.0049309
Menthol मेंथा 0.524371
Guidance मेंथा 0.00158194
discussion, क्योंकि 1.92234e-05
46 46 1
, संक्षेप 0.000137176
have सरफराज़! 0.000349233
thing सरफराज़! 1.92044e-07
a संक्षेप 0.000241936
way अजमेर 0.00733253
a सरफराज़! 0.000209447
saves लगाई 0.21563
Kunsaa. कुंसआ 1
yet है,फिर 0.00792159
infected घुनते 0.0110347
An 'लीडर' 0.0222907
proved वरदान 6.26003e-06
got सरफराज़! 0.00369212
complete डालना 0.00378744
seen. अविरल 0.0187488
final. खेले 1
taking उत्पादनों 0.00452145
time, मार्क्सवादियों 0.0190966
-LRB- टैमेरिन्डस 0.000740042
fodder खिलायें 0.00297981
single 46 0.0151273
strength दाँतों 0.0337194
maintain दाँतों 0.0204918
bulbs अच्छी-अच्छी 3.19249e-06
selected रंगकर्मी 0.058503
exporting. है,फिर 1
Did अनाप-शनाप 8.45881e-07
this 2002-03 8.52183e-09
shall बताऊँ, 0.00685031
makes 46 0.0195121
speed 46 0.042718
m. 46 0.0635592
continuous अविरल 0.019818
you? खातिरदारी 0.0131641
was 2002-03 0.000265887
started 2002-03 0.00336816
we टैमेरिन्डस 0.000960806
nobody बताऊँ, 0.0260908
had ध्वस्त 0.000513247
doing सरफराज़! 0.000174686
who ध्वस्त 0.000989694
their देवल 2.18502e-08
Samar समर 0.663191
Is अजमेर 0.0533467
Samar. समर 1
BC 300-400 0.11372
get उगानेवाले 0.00046145
Was खातिरदारी 0.0409193
lacking खातिरदारी 1
hospitality खातिरदारी 1
get मिलें। 0.000465398
at मिलें। 0.00028618
inside बाँस 0.0181934
varies. अलग-अलग 0.821265
margin बटोरते 3.59328e-05
contribution. बटोरते 0.697727
rest शेष 0.450263
from 2002-03 0.00026806
celebrates फेक 0.0344844
should मिलें। 0.000249794
gets घुनते 0.00225858
phake फेक 1
near उगानेवाले 0.00295415
my ज़िन्दगी 0.00338931
1961 51.2 0.110448
51.2 51.2 1
1971 51.2 1
37.5 51.2 1
remaining शेष 0.189607
least मिलें। 0.00732594
has लोहे 1.2676e-08
there लोहे 4.56367e-09
market उगानेवाले 0.000897145
from देवल 1.93731e-09
deplorable. दयनीय 1
The फलियां 0.00037283
immature नादानों 0.339156
shall चलें? 0.00441922
Marxists मार्क्सवादियों 1
forecasted मार्क्सवादियों 1
are फलियां 0.000218589
resources. Allocation) 0.0461642
potato. मेंथा 0.000580321
low उगानेवाले 0.00233357
, करवाना 8.15007e-08
with सँजोया 0.000142253
Take निकालो 0.0163628
happiness. निकालो 0.0388134
tamarind टैमेरिन्डस 0.391024
Indica टैमेरिन्डस 3.65471e-05
boon वरदान 1
India, मालगुडी 0.0310989
nearly आनन-फानन 0.0225404
train ज़िन्दगी 0.0856584
half-ripe अविरल 1
prices उगानेवाले 0.00296419
Sachidanand सच्चिदानन्द 1
Hiranand सच्चिदानन्द 0.00030599
upto फलियां 4.26865e-06
iron लोहे 0.503207
are हत्यारे 3.32054e-06
though आनन-फानन 0.0113593
go. चलो। 0.0317186
become फलियां 1.8108e-06
When फलियां 7.24906e-06
his अद्वितीय 0.00022701
wanted बचना 0.0157566
The चने 0.000440895
There चने 2.00196e-05
Killed 'नो 1
inspiration प्रेरणा 0.519955
about चने 5.61776e-07
' `टग 2.25438e-05
The मेढक 7.35126e-05
good अंग 0.00261482
- चने 8.40967e-08
reason सरफराज़! 0.00325872
Developing उत्पादनों 0.738018
productions उत्पादनों 0.323801
considered. विशेषताएं 0.581304
iron. लोहे 1
' सँजोया 0.000923042
Baburao भुलाया 1
Painter भुलाया 1
forgotten. भुलाया 1
opposite हीरोइन 1.02637e-06
Economic इकोनॉमिक 1
upon सीआईडी 0.00758163
celebrity's सेलेब्रिटी 1
participant सेलेब्रिटी 1
celebrity. सेलेब्रिटी 1
sweet सँजोया 5.38478e-05
For चने 0.00441733
claims. दावे 0.274542
ask मांगता 0.0144617
water. शेष 0.0216346
you मक्के 0.00106194
husk अलग-अलग 9.18164e-06
There मृतक 0.00218006
tried ध्वस्त 0.00753526
From प्रर्दशन 0.00589006
will रहोगी, 0.000550488
break अशफाक, 0.0116719
transplanted लगाई 0.115516
after रहोगी, 0.000662733
power रहोगी, 0.00531839
foods खाद्य 0.00028832
thursday थर्सडे 1
slopes ढलान 0.427424
dhaariwala वाला' 0.999877
haradewala वाला' 1
genome चने 3.46648e-06
reduce रहोगी, 0.0135985
gram चने 0.160812
doing चने 0.0257733
milk, महल, 0.196946
pardon मांगता 0.212798
shattered. धज्जियां 0.332691
legumes फलियां 0.449634
They चने 4.94273e-06
be हफ्तों 0.000373299
said हफ्तों 0.00417302
has नलिकाओं 6.75844e-08
are हिरंजन 4.3892e-06
and हिरंजन 4.95606e-06
growing उगानेवाले 0.00264035
chelseadomia स्टीकारनिस 0.999866
a हफ्तों 4.47199e-07
food नलिकाओं 0.0002244
plays नाटिकायें 0.0244108
area मुजेराबाद, 0.0027464
vulnerability सुभेद्यता 0.41686
Few मुजेराबाद, 0.0119933
changes, सुभेद्यता 1
Among चने 2.33654e-05
this. नलिकाओं 0.0037322
part अंग 0.0199124
Like संक्षेप 0.00161719
not मैसूर, 5.43219e-05
few हफ्तों 2.89042e-07
weeks. हफ्तों 0.161826
early. अलविदा 0.120906
but मैसूर, 0.00024191
Amongst जुलते 0.050759
" जुलते 0.00623126
boon. वरदान 1
cultivation. चने 0.0236633
replete परिपूर्ण 1
taxi, टैक्सी 1
Gafur टैक्सी 0.00393247
say, टूर 0.0368839
be पाऊंगी 4.32729e-05
will पाऊंगी 0.000184128
Mulayam मुलायम 0.797642
countries देश, 0.00698484
There उत्थान 0.00100403
technology 2002-03 0.00726844
This मैसूर, 0.000183901
cant पाऊंगी 0.195576
say पाऊंगी 0.00134064
were उत्थान 0.000987235
, वादा 3.01994e-09
very मैसूर, 0.000184865
that जायेंगे 9.7309e-06
called जुलते 0.00193969
be जायेंगे 0.000896904
of चित्रित 6.70121e-07
produced. चने 0.000299761
didn't समझे 0.0376988
Thus नलिकाओं 4.80695e-05
72 72 1
sight झलक 0.200001
around स्वच्छन्द 0.0021038
country. चित्रित 0.008149
marking शस्य-जलवायु 0.0907483
all वादा 4.75696e-07
providing करवाना 0.0229922
also डाली 0.000727399
same डाली 0.0175207
Spain देश, 4.76041e-05
strong देवल 0.00856745
with नपना) 1.546e-08
has चित्रित 0.000409825
appropriate. मुनासिब 0.149359
Jamshedji जमशेदजी 0.666657
here. हिरंजन 0.00500917
during डाली 1.29294e-07
put डाली 0.0338334
cultivated हिरंजन 0.00189807
Its इमरान, 0.00372236
a नपना) 5.31223e-06
throne गद्दी 0.899595
brilliant अनोखा 0.42244
deserving. अनोखा 0.000419351
I पाऊंगी 0.000259954
sorry, मिस 0.233719
similar जुलते 0.0119683
manner संक्षेप 0.144972
chutney खाद्य 2.95879e-05
India's मुजेराबाद, 1.11922e-06
types लोहे 0.0108345
fast. आइए। 0.0607916
discussed बताए 0.531416
Refined दुहरे 1
are बकवास 1.15082e-08
flavor. दुहरे 0.00034907
between तकरार 0.00175671
people. मक्के 5.43539e-07
think, समझे 0.240099
role. भालचंद्र 0.130155
add डालना 0.279569
bamboo बाँस 0.434311
By चने 0.0133025
sham रफी 0.999744
unique अनोखी 0.0935305
professor ढाका 0.322029
only. फलियां 1.35943e-07
time डाली 0.00252355
does मैसूर, 0.000927663
rubbish. अनाप-शनाप 1
amusement. दिखाई। 0.697029
At डाली 0.0240882
given डाली 0.0020285
Giving लोहे 0.57431
you बकवास 1.77242e-07
miss मिस 0.474319
52,516 516 1
attributes विशेषताएं 0.788147
decide उत्पादनों 0.0527985
production अदरक, 0.000540416
maize. मक्के 1
Leader 'लीडर' 0.580983
unique बेलनाकार, 0.000219723
sugar अदरक, 0.00410481
such बुरे 0.00135404
rent, पत्तों, 0.636445
would मुनासिब 0.0023594
methods. सीमाबन्धन 0.047603
treating खिलायें 0.183471
me, चलो। 0.0566918
them वादा 0.00475914
gain रहोगी, 0.148127
dream सँजोया 0.0178261
In कमरा 0.000906022
places. ढलान 8.75791e-05
epoch-maker युगप्रवर्तक 1
organic कृषि) 0.00608403
phosphorus फासफोरस 0.120439
During बुरे 0.00342931
serve खिलायें 0.371973
creates अनोखी 0.717269
keeping नलिकाओं 5.03278e-05
From क्लस्टर 0.00296309
will बस्स, 5.10373e-08
value नलिकाओं 0.0089696
channels नलिकाओं 0.0714172
one बस्स, 0.00058063
emerge गड्‍ढों 1.28776e-06
these बस्स, 0.000583802
such ऐसी-ऐसी 0.000844767
Anarkali अनारकली 1
suggestions उत्थान 0.0152415
Anarkali. अनारकली 0.611452
by मारी 0.000391232
mere झलक 0.420801
An अंग 0.106653
done. चने 0.000116322
I बस्स, 3.78676e-06
300-400 300-400 0.746642
lungs फेफड़ों, 0.0693475
employments जायेंगे 0.783011
would जायेंगे 0.010485
created जायेंगे 0.136199
whether पाऊंगी 0.00595603
need क्लस्टर 0.00117451
Before ओरिस 0.00903054
should देखे। 0.000759014
sawing. डालना 1
there रकबे 0.0010795
border आंच 0.0717396
that. ऐसी-ऐसी 0.0151445
tender हँ? 0.178057
bite. गड्‍ढों 0.544071
watery. मुलायम 0.303786
also बढ़ी 0.000387531
have बढ़ी 1.4933e-07
used. फासफोरस 1.48092e-05
giving पूर्व, 0.00177197
using फासफोरस 0.000757552
728 728 1
tour, टूर 1
rainy बुरे 0.0469153
common जायेंगे 7.21995e-06
has बढ़ी 0.0016473
increased बढ़ी 0.0592591
chickpea चने 0.785534
integral अंग 0.556974
springs. सोतों 0.714286
which डिब्बा', 0.00026758
Before पूर्व, 0.00480558
propagating एच 0.826259
function Allocation) 0.0425252
harsh सीमाबन्धन 0.000443428
efficient Allocation) 0.145045
allocation Allocation) 0.59971
him तड़पने 0.0138914
nice अच्छी-अच्छी 0.0769013
ginger अदरक, 0.011882
cane अदरक, 0.0776479
cotton. अदरक, 0.0549522
affected मारी 0.0299836
here सर? 0.00135582
mind चित्रित 0.0155827
has आस्ट्रेलिया 0.000390329
breathing श्वसन 0.567349
see देखे। 0.00391541
restricted सीमाबन्धन 0.11427
undertaking अनोखी 1
brief संक्षेप 1
lands मैसूर, 0.00991601
one डी०डी०टी० 5.5655e-08
you सर? 0.000266233
rainy बरसाती 0.0850498
using ओरिस 0.00462297
by डी०डी०टी० 9.54908e-05
carburetor कचरा 1
technique ट्रान्सफर 0.0277498
a मालिक 2.61999e-06
painting पेंटिंग 0.745307
batter कैण्डी 1
wing अंग 0.833191
for मालिक 0.000526212
doing सर? 0.00527944
, प्रक्षेपित 4.85238e-08
will जाएंगे, 0.000360245
, जाएंगे, 1.20823e-08
Brahmachari टॉयलेट- 0.309397
toilet. टॉयलेट- 0.000149128
O. ओ. 0.613712
business करोबार 0.00384045
Volatile ओ. 1
safety पूर्व, 0.0102678
be खिलौना 6.2655e-05
a खिलौना 9.83182e-05
Roko रोको' 0.998652
for खिलौना 7.24556e-05
from सामर्थ्य 6.89487e-05
peo जायेंगे 1
co-operation हवादार 0.0442868
you मालिक 0.00167795
Vijaylaxmi विजयलक्ष्मी 0.55111
good जाएंगे, 9.11841e-09
at ढेंकली 0.000111895
too सीमाबन्धन 1.08669e-05
weevil घुनते 0.444622
country प्रक्षेपित 8.30448e-07
greenhouse ग्रीनहाउस 0.0747003
rich करोबार 0.0059171
sell पूर्व, 0.00981761
has डॉलर 0.0011212
Arrangement हवादार 1
different पक्षेती 0.00140493
Planning हवादार 0.228093
center. मृतक 8.07408e-05
Australia आस्ट्रेलिया 0.678914
his करोबार 3.01257e-05
It ढेंकली 0.000568321
October. डी०डी०टी० 0.0232157
realistic यथार्थवादी 0.883231
responsible. आंच 1
saving संवेदी 0.0187424
1999-2000 1999-2000 0.92307
Kher खेर 1
Rest शेष 0.211401
, छौंकने, 6.47819e-05
be 'गतिहीनता 7.17652e-05
one 'गतिहीनता 0.000463558
a 'गतिहीनता 0.000123399
it 'गतिहीनता 4.17624e-06
cropping बताए 0.436285
sensitive संवेदी 0.0373564
fulfill क्लस्टर 0.0071911
Australia. आस्ट्रेलिया 0.709518
fields. स्वतन्त्र 0.205849
became करोबार 0.00375912
The विचार-विमर्श 4.5604e-05
various विचार-विमर्श 0.00339116
weeding-digging. पास-पास 0.158114
declared 'गतिहीनता 0.0154757
there संपन्‍न 1.25305e-07
, कच्चा-चिठ्ठा 8.78303e-09
The टेलीफ्लेक्स 1.24727e-05
upliftment उत्थान 0.315322
hustle आनन-फानन 1
bustle आनन-फानन 1
yet. आनन-फानन 0.0302787
being विचार-विमर्श 4.59966e-07
seeds छौंकने, 0.000170192
put. डालना 0.380816
objecting जसवंत 1
Jaswant. जसवंत 1
for जाते? 0.000129236
driving मूवमेंट 0.160072
take तरह 4.07232e-06
previous टेलीफ्लेक्स 0.0164621
teeth दाँतों 1.83323e-05
be गिली 0.00013698
there, आइए। 0.041371
movie. झलक 0.145435
dead मृतक 0.140464
then गिली 8.99829e-05
should गिली 0.000392172
Sowing चने 0.224015
2002-2003. 2002-03 1
weeding `टग 0.0361742
away सामर्थ्य 0.0053128
days. बस्स, 0.00340767
also सीता 0.00015156
quality संपन्‍न 5.40729e-07
Per चने 0.321782
foreigners' फिरंगियों 1
travels फिरंगियों 1
don't जाते? 0.00677385
such तरह 0.0704838
In ठण्डे 0.000402603
bad बुरे 8.78657e-06
Nalini मिस 0.999956
done विचार-विमर्श 0.000603429
The जाल 1.04555e-07
artists रंगकर्मी 0.025729
Lets चलो। 0.605575
There जाल 8.22245e-06
again बाजपेयी 0.00446768
maintained पक्षेती 0.113769
has बाजपेयी 0.000145459
flower फलन 0.0131924
a जाल 0.00239673
, पद्मावती। 3.3704e-05
me बस्स, 0.00165414
was पद्मावती। 1.98331e-06
humidity loamy 0.0258326
required loamy 9.54411e-07
farmers जाल 5.68948e-06
demand सीता 0.00415051
For ठण्डे 0.00153396
miserable. दयनीय 1
an गौरवशाली 0.00257928
become सीता 0.00156607
paints पेंटिंग 1
painting. पेंटिंग 0.377033
Bihar. विचार-विमर्श 0.0871075
Painting पेंटिंग 8.27882e-05
freely स्वच्छन्द 0.307694
goal. करवाना 0.162633
All जाएंगे, 0.00272235
for दस्तावेज 2.45959e-08
? जाएंगे, 0.0017591
has दस्तावेज 0.000637666
Neemex नीमेक्स 1
facility loamy 0.0102998
Thus तरह 0.00041401
gets मारी 0.0110285
come, आइए। 6.84737e-06
- राज्यों 0.00262638
be कीजिए। 0.000364922
Few तरह 7.91435e-06
heat संवेदी 0.027871
bringing संपन्‍न 0.0475291
India's डॉलर 9.39244e-05
states राज्यों 0.540567
Gram चने 0.027205
heard हरदयाल 8.39356e-05
namely चने 3.45622e-05
kinds तरह 0.262611
should कीजिए। 1.81172e-05
cold ठण्डे 0.0172649
like तरह 0.243667
six राज्यों 8.58185e-07
leading आस्ट्रेलिया 0.0708424
dance, रक्स, 1
trees फलन 0.00691619
plantation फलन 0.0176214
impacting पेंटिंग 1
consisting पेंटिंग 1
paintings. पेंटिंग 1
country राज्यों 7.0409e-07
situation सीता 0.0043303
Matrikeria मैट्रिकेरिया 1
S. डॉलर 0.000977215
opposite. जायेंगे 3.29559e-05
ways. तरह 0.394128
poetry नाटिकायें 0.0147006
See बताऊँ, 0.00817242
American टेलीफ्लेक्स 0.00945129
out डॉलर 1.64292e-06
It एस.के.! 0.000203985
-RRB- 1973) 0.0014271
that सुचूर्ण्य 7.22534e-05
richest बढ़ी 9.27146e-06
magic झांक 0.0304791
ejection स्राव 1
has 147 9.93441e-05
there, चलें? 0.0118503
pros मांगता 1
cons, मांगता 1
holding वादा 1.04957e-06
during 1823 0.00172905
used कीजिए। 0.00242309
he 147 0.000481712
teeth. दाँतों 0.789259
jowar लोहे 0.271273
told एस.के.! 0.0046728
Iron लोहे 1
TV निहितार्थ 3.78062e-06
he सुचूर्ण्य 0.000320978
black काला 0.0907512
to कृषि-उत्पादो 3.88992e-05
cool ठण्डे 0.116208
joy, अच्छी-अच्छी 7.41846e-05
bark, बेलनाकार, 1
circular बेलनाकार, 1
across प्रक्षेपित 0.0301538
The चूहे 3.76359e-05
roam स्वच्छन्द 0.179149
proper loamy 0.00390145
as पथ्य 0.000213777
say, बताऊँ, 0.0490865
mud गिली 0.0694871
neutral निष्प्रभावी 1
plants: निष्प्रभावी 1
with उलझता 0.000121252
was जूझते 6.57242e-05
comes फलन 0.00401267
go जाएंगे, 7.07688e-06
products कृषि-उत्पादो 0.00220953
a उलझता 0.000105101
completely सुचूर्ण्य 0.00581581
why उलझता 0.00112396
Bhalachandra भालचंद्र 1
Prabhaakar प्रभाकर 1
kind तरह 0.418386
The अध्ययन 0.000123395
is अध्ययन 2.16989e-09
agricultural कृषि-उत्पादो 0.000383012
which जूझते 0.000134017
dollars डॉलर 1
markets. राज्यों 2.47427e-06
structure लचीले, 0.0499465
Breathing श्वसन 1
vlosam व्लोसम 1
states. राज्यों 0.768525
Author प्रभाकर 0.947533
Prabhakar प्रभाकर 1
and बाजरों 2.49481e-08
keeping तरह 1.95184e-06
say कहो 0.0225607
Teliflex टेलीफ्लेक्स 1
added टेलीफ्लेक्स 0.050241
inventions. टेलीफ्लेक्स 1
example ठण्डे 0.0254177
here कहो 4.7192e-07
used. बींट, 0.00668411
woodworm. घुनते 0.246661
respiration श्वसन 1
way तरह 0.159434
will देनेवाला 1.92566e-06
, देनेवाला 2.01496e-07
color काला 0.0116798
Satyajit सत्यजीत 0.15979
The डॉ.एचएस 4.76013e-10
Ray सत्यजीत 0.0582501
giving जूझते 0.00147441
Bangla. सत्यजीत 0.332913
heroines कॉपी 0.186881
you कहो 8.5738e-07
types तरह 0.0482326
Per फासफोरस 0.17132
of वलीअहद-ए-सल्तनत, 3.02018e-07
the वलीअहद-ए-सल्तनत, 8.52385e-09
dinner. भोजन 3.84367e-05
exhibition प्रर्दशन 0.013704
orris ओरिस 0.486627
patchouli ओरिस 5.37514e-05
published 'स्त्री 0.0523681
institution डॉ.एचएस 0.0306321
to पत्तनों 4.06716e-07
much दीर्घावधि 0.00218629
programs, ग्रीनहाउस 0.333333
long दीर्घावधि 0.00211367
Like तरह 0.715294
document दस्तावेज 0.926117
comission दस्तावेज 0.00649985
give देनेवाला 0.00102844
goats 16.7% 0.110707
state बाजरों 0.00155342
brought कहो 0.00916842
talent. रंगकर्मी 0.17859
go जाते? 0.00204405
poet, यथार्थवादी 0.601902
Area फलन 0.260218
are बिज़नेसमैन 6.55022e-05
sight दाँतों 0.200612
Dr. डॉ.एचएस 0.00212945
eat चूहे 7.51753e-05
remain एस.के.! 0.00218409
included. 16.7% 0.0159673
mine. डाली 0.295983
these सागरीय 0.00260264
live तरह 0.00415186
Let तड़पने 0.0169777
an सन्दर्भ 0.000966956
saves असंतुलनों 0.167452
growing 1823 0.00525499
1823. 1823 1
stages पक्षेती 0.0829871
By सुचूर्ण्य 0.00185371
shall सीता 0.00884619
fruits सुकर, 0.00438314
sent बाजरों 0.00705978
region सागरीय 0.0185937
only. राज्यों 5.26723e-06
by व्याख्यानमाला 0.000157489
IVLP सीएसआर-2 1
such सागरीय 3.66214e-08
CSR-2 सीएसआर-2 1
X सीएसआर-2 0.999144
were लैंड 0.000596842
theater रंगकर्मी 0.0311877
chain प्रक्षेपित 6.36589e-06
plucked बाजरों 0.0181827
for लैंड 1.9471e-08
attached फलियां 0.249528
pick आइए। 0.577914
lack जूझते 0.00161102
cultivation. देनेवाला 0.00908591
projected प्रक्षेपित 1
far-off बाजरों 0.545344
markets. बाजरों 0.0129904
showcase रंगकर्मी 0.232587
sum दाँतों 4.09773e-05
handwriting अंदाज़ 2.98945e-05
Malgudi. मालगुडी 1
flat मैसूर, 0.0211468
flourishes मैसूर, 1
Sukana मैसूर, 1
coordinated गोयनका 0.347441
mother मुनासिब 0.0051248
has तकलीफें 7.75111e-05
dollar. डॉलर 0.0193739
dollars. डॉलर 0.761513
not बढ़ाया 0.000348322
come बेटा। 0.00069373
more. दीर्घावधि 0.00741178
provisions लैंड 0.0838162
be बढ़ाया 1.70892e-07
proved बाजपेयी 1.14311e-06
more तकलीफें 0.00024618
land लैंड 0.000604366
talk उलझता 0.00196239
spice छौंकने, 0.0176483
dollar डॉलर 0.00921308
shatter ध्वस्त 1
try ध्वस्त 0.0129068
retrograde ध्वस्त 1
by बढ़ाया 0.00104454
increased बढ़ाया 0.0646088
entirely तरह 0.00281766
these बढ़ाया 0.000176744
clue अलविदा 1
many तकलीफें 0.000638134
innocent लफंगा, 2.06623e-06
purpose पर्पज 0.174692
more बढ़ाया 0.000875459
King हरदयाल 0.0348419
release अमिताभ 0.133025
had बेटा। 0.00102512
B.R.Chopra बी. 1
as (सफेद 2.16536e-05
plant, फलियां 0.00612143
good (सफेद 0.000725046
color. काला 0.0223682
transport कृषि-उत्पादो 0.0619646
clusters क्लस्टर 0.0949929
peeped झांक 1
eye, झांक 1
have किलोमीटर 0.000548949
spraying डी०डी०टी० 0.000156658
it किलोमीटर 2.14141e-07
diet पथ्य 0.0389471
cultivation सागरीय 3.2721e-07
region. सागरीय 0.170822
Australia's आस्ट्रेलिया 1
life जूझते 0.000935716
through बढ़ाया 0.00323259
C. 49381 0.100103
which किलोमीटर 0.000482144
increased. बढ़ाया 0.0663011
an पहलू 3.81841e-08
under लैंड 1.99076e-07
acreage रकबे 0.273019
new 'छायावाद' 0.0014013
network जाल 0.484912
The बीज 0.000111162
Phosphorus फासफोरस 0.32791
amount (सफेद 0.00124423
what कहो 0.00281932
movement? मूवमेंट 1
He इमरान। 0.000732709
Mujerabad, मुजेराबाद, 1
go? चलें? 0.130831
milk (सफेद 0.00400976
type तरह 0.12384
acting अभिनय 0.702518
make आंचल 0.000988812
Where लैंड 0.00489812
technique पहलू 0.015727
much पहलू 1.00478e-06
heart स्पर्श 0.00701251
much इमरान। 0.00224253
occupational ग्रीनहाउस 0.499958
horticulture, ग्रीनहाउस 0.205342
appreciated. क्रेडिट 0.749307
years पाँचवें 0.00298797
only अन्‍न 0.000690016
Ashfaq अशफाक, 0.077713
meant सुचूर्ण्य 0.0537119
powder सुचूर्ण्य 0.00567616
befriended अशफाक, 1
pain. अशफाक, 0.425462
seeds बीज 0.650837
fish सुकर, 0.000259906
draught मारी 0.237958
put सेल्युलाइड 1.08657e-06
records सुकर, 0.000772904
gram. संपन्‍न 0.0485244
wriggle-make तड़पना-तड़पाना 1
wriggle, तड़पना-तड़पाना 1
term दीर्घावधि 0.0170606
am कहो 5.96827e-05
used इमरान। 0.000649928
increase. पत्तनों 0.179013
improving संपन्‍न 0.0914385
Jeeralu जुलते 1
, समयबद्ध 3.42991e-08
a समयबद्ध 0.000244463
prevailed. तकरार 0.67381
was सांप्रदायिक 6.36362e-07
should समयबद्ध 2.67084e-05
gives 'छायावाद' 0.00349347
there समयबद्ध 0.000220976
In वानिकी 0.000785016
agriculture)till कृषि) 0.986274
agriculture). कृषि) 1
reforming संपन्‍न 0.423635
study अध्ययन 0.905908
sea सागरीय 0.183387
forestry वानिकी 0.894159
intensive विचार-विमर्श 0.0761656
study. अध्ययन 1
Ajmer अजमेर 0.882083
beginning पाँचवें 0.00665459
green मूँग 0.00277254
states कनाड़ा 0.00274671
Ahuja आहूजा 0.516631
Ahuja. आहूजा 1
problems तकलीफें 0.0043798
grain अन्‍न 0.0152856
side नुकीले 8.81299e-06
her. सीआईडी 0.0267922
be कम्पोस्टिंग 7.29063e-05
suffering जूझते 0.0508341
under आंचल 0.00126602
base नुकीले 0.00899709
cleansing कन्जीलिंग 0.27235
point(CP)and कन्जीलिंग 1
plant सुचारूरूप 2.78114e-06
bean मूँग 0.00965525
seed बीज 0.888277
earning बढ़ाया 0.0990483
till दूधिया 3.1535e-07
political राजनीतिक 0.840868
unparalleled अद्वितीय 1
quite मंज़र 0.00295029
as कम्पोस्टिंग 0.000466436
main पहलू 0.00719883
spot काला 1.91509e-05
on फलिया 0.000111147
for लाई 0.00180447
chained नादानों 1
heroine हीरोइन 0.438633
and तरफ, 7.41161e-05
Menthol राज्यों 0.000241701
harvested बीज 3.32358e-06
side पहलू 6.06407e-07
to तरफ, 7.12044e-05
series व्याख्यानमाला 0.045968
seeds. बीज 0.336123
organ अंग 0.999968
are तादात 7.40227e-06
technique प्रतिरूप 0.0369974
trimming. बरसाती 0.00823769
there तरफ, 0.000442374
carefully. कीजिए। 0.669111
fifth पाँचवें 0.0994996
this. लाई 0.0246107
publication 'लीडर' 0.237917
She सरफराज़! 0.0120181
frog मेढक 0.176366
colder ठण्डे 1
them. समयबद्ध 0.00739439
7 7 0.931146
global हर्बल 0.0736888
was मैसूर 2.83062e-07
cereals अन्‍न 0.0979689
CID सीआईडी 1
market, पूर्व, 0.192239
(West (पश्चिम 1
been उतारा 1.25552e-08
Bengal). (पश्चिम 0.990733
salt ईट 0.0349383
put उतारा 0.0490392
brought लाई 0.11714
remained शाहदारा 0.00508856
used लाई 0.00061857
Seed बीज 0.865642
come साफ़ 4.23663e-08
procurement संपन्‍न 1.93212e-06
finished संपन्‍न 0.0943615
ever. संपन्‍न 0.061564
had बेज़ार 0.000506844
Mineral ईट 1
mixtures ईट 1
brick ईट 0.155598
shaped ईट 0.139074
lumps ईट 0.274256
It समाविष्‍ट 2.251e-07
on 27 0.000530407
aspects पहलू 0.419264
very उतारा 0.00169293
I बेज़ार 0.000147202
per 27 0.00192237
United कनाड़ा 0.0087956
will दबाएगा? 5.79261e-08
Canada कनाड़ा 0.0269419
Bhantaful हिरंजन 1
Hiranjan हिरंजन 1
Manhu. जुलते 3.55485e-05
grown फलिया 0.00123956
includes समाविष्‍ट 0.0261099
namely राज्यों 0.000914624
feel जाएंगे, 0.00922791
Karif तरह 4.51545e-05
accounts. 242 4.08087e-05
studied 1973) 0.0724685
Sarafraj, सरफराज़! 0.999989
were 242 1.8002e-06
selected 147 0.0401184
increases दूधिया 0.0122316
information चौपाल 0.00541616
that अनिश्‍चितताओं 7.97186e-05
cover आंचल 0.0157539
actress हीरोइन 0.150204
yields लाई 0.000364187
there 242 0.000184137
Except कनाड़ा 0.0780908
seed. बीज 0.52707
it अनिश्‍चितताओं 3.25281e-08
legumes फलिया 0.00792831
he दबाएगा? 0.000499217
began 27 0.0193869
way लहजे 0.00439577
0.2 डी०डी०टी० 1
D.D.T डी०डी०टी० 1
Tuberose ट्यूबरोज़ 1
reduce अनिश्‍चितताओं 0.0113324
refused साफ़ 0.0557872
might मारते 0.0309529
periodic समयबद्ध 0.609219
implement समयबद्ध 0.000902768
Why जाते? 2.3127e-07
discussion विचार-विमर्श 0.0511309
should शास्त्रीय 0.000879573
discuss सन्दर्भ 0.541083
partition मंज़र 0.191932
Chickpea चने 0.318199
chickpea. चने 0.951599
From बेज़ार 0.00196783
were एक्चुली, 4.17079e-06
measuring नपना) 0.39546
device. नपना) 1
Indian शास्त्रीय 0.00216412
either कम्पोस्टिंग 0.0145192
Talentube.com टैलेंट्यूब 1
Chor मिलें। 1
Bazar, मिलें। 1
which 95 1.36762e-08
than 95 0.00258288
master मालिक 0.272081
made. 27 1.54483e-06
with साथ, 0.00128479
produced 27 0.00872956
villages सेल्युलाइड 0.00493587
pulse पथ्य 0.0504357
other साथ, 1.82654e-06
capability सामर्थ्य 0.42551
Rockstar रॉकस्टार' 1
child तकलीफें 0.000113817
do शास्त्रीय 0.000200036
run बेज़ार 0.00398398
seasoning छौंकने, 1
teacher सच! 0.0326116
aspect पहलू 0.486089
consumed 95 2.21034e-05
keep दबाएगा? 6.13265e-06
examined परखी। 0.394675
over मारते 1.55442e-07
issues प्रतिरूप 0.0955915
is हिमालिया 3.32558e-05
today (बैंगन, 0.00083369
16.7% 16.7% 1
1973 1973) 0.100005
Ra-1 रा.वन 1
weren't रा.वन 1
haven't हरदयाल 0.121486
who साथ, 0.000110255
were 286 0.000520789
will पढ़ाएंगे। 0.000310944
Hardayal? हरदयाल 1
remember मंज़र 4.75954e-07
movie हीरोइन 0.0305536
more उभरा 0.000979502
are mulberry 1.23461e-07
27 27 0.9318
worlds 27 1
at mulberry 0.0011158
Shall चलें? 0.0651623
From अनिश्‍चितताओं 0.00197743
them 242 0.00211278
used (बैंगन, 0.00228079
is 'भरा 1.77928e-05
India mulberry 9.26671e-07
His स्पर्श 4.28516e-07
as पढ़ाएंगे। 0.000545258
him समझाइये 0.00578812
weak सुचारूरूप 0.0173737
him, सँजोया 0.0421142
flood, मारी 1
cabinet प्रधानमंत्री, 0.373454
ocean सागरीय 0.907754
it संगोष्‍ठी 9.31164e-05
" 'भरा 1.15266e-06
, आँखें, 0.000240343
well उतारा 0.0295755
conference संगोष्‍ठी 0.0989461
mixture बींट, 0.0150714
medicines. दवाइयों 0.132034
Do ठण्डे 0.021229
Imran, इमरान, 1
flowers. फलिया 0.0129798
well. मंज़र 0.0140862
By चौपाल 0.00372709
marrying रहोगी, 0.363747
weather अनिश्‍चितताओं 0.00390886
less. दवाइयों 9.06132e-05
the जीवनदायिनी 2.88627e-05
for तरक्‍की 0.000149362
called 'भरा 0.00493798
there तरक्‍की 0.000172731
there, करोबार 0.0203162
Madhubala's हीरोइन 1
oceanic सागरीय 1
was पकड़े 0.000771236
cry. तड़पने 2.22148e-06
rats चूहे 0.200045
If पकड़े 0.00436953
be दसक 5.36413e-05
intermittently पक्षेती 1
Black काला 0.000507995
farmers. जीवनदायिनी 0.00224566
have प्लीज 0.000680166
last दसक 0.0010669
athletic देवल 1
Sunny देवल 0.000192023
Deol देवल 1
! हत्यारे 0.0753034
he लेकर, 9.40949e-07
kidney मूँग 0.215242
Himalaya हिमालिया 0.216938
from लेकर, 4.14168e-05
It दसक 1.03132e-06
At संगोष्‍ठी 0.0175179
Russian रूसी 0.889003
been हमेशा 8.02727e-08
portrayed. चित्रित 0.594093
businessmen बिज़नेसमैन 0.0490736
reason दवाइयों 3.94863e-07
got प्लीज 0.00785565
hill, चलें? 1
for तेलिया 9.56225e-06
done. लाई 0.0464976
properly. सुचारूरूप 0.037179
it सेल्शियस 6.57272e-08
markets 286 0.00550179
Mulberry mulberry 0.0211981
silk mulberry 0.000246248
herbal हर्बल 0.624621
owner मालिक 0.775265
promised वादा 0.652913
Calicut, कोटटायम्, 1
that. संगोष्‍ठी 0.022748
Kottayam, कोटटायम्, 1
herb हर्बल 0.217366
fertilizers. कम्पोस्टिंग 0.00931242
- द्विवर्षी- 0.000340026
along साथ, 0.00777533
become हमेशा 3.99812e-08
Also दवाइयों 2.75969e-05
The भुरभुरी 2.16127e-06
As मदनमोहन 0.00441527
children's अनुराधा 0.0362686
killers हत्यारे 0.11585
been लुट 0.000304713
be प्रशासन 8.07242e-09
tampering दस्तावेज 0.402593
Land समाविष्‍ट 0.0237715
sunny ठण्डे 0.379259
this यूँ 0.000524766
In प्रशासन 0.000450414
has लुट 0.000113708
were प्रशासन 0.00107316
commissioner. हँ? 0.0723998
an आत्महत्याओं 0.00239162
every हमेशा 1.77107e-06
growth तरक्‍की 0.00451679
organized. अध्ययन 0.000771742
insecticides दवाइयों 0.000243255
applied. गिली 1
plant द्विवर्षी- 0.000520995
an आखिरकार 0.00293974
farmer आत्महत्याओं 0.00464604
drugs दवाइयों 0.0810187
this समबन्धी 8.73213e-05
there आत्महत्याओं 0.000344915
some तेलिया 0.000582104
have समबन्धी 0.000174984
this. यूँ 0.0272453
all आखिरकार 0.00182695
loss. समबन्धी 0.0109024
leading दवाइयों 0.00360687
cover. समाविष्‍ट 0.125914
After आखिरकार 0.00421023
declared आखिरकार 0.0587253
Those साथ, 0.13254
Jalal's मुनासिब 0.441102
foster मुनासिब 1
function सुचारूरूप 0.028758
cadish, लफंगा, 0.789248
mustache लफंगा, 0.999989
learning आत्महत्याओं 0.000266298
eb बढ़ाया 1
so जब-जब 0.00202806
together एक्चुली, 0.000116682
out, फलन 0.353161
respect. तरह 5.01809e-05
places तेलिया 0.00431283
bird बींट, 0.0095213
guano बींट, 0.975096
Thus, तरह 0.316349
pattern प्रतिरूप 0.434479
establishing चौपाल 0.0303651
those आँखें, 0.00176873
soil भुरभुरी 6.62811e-08
, सीताफल, 1.92417e-09
boundary किलोमीटर 7.40766e-05
kilometers. किलोमीटर 1
event सन्दर्भ 0.115439
feet मारते 0.0473914
model प्रतिरूप 3.82565e-05
seventh दसक 0.0579286
level स्तरों 6.56803e-07
appeared उभरा 0.293888
like यूँ 0.00877006
so सप्लाई 0.00229519
wriggle तड़पने 0.597994
rearing. अन्‍न 0.179185
7th 7 1
them. द्विवर्षी- 0.00264296
becomes भुरभुरी 0.0320664
soft. भुरभुरी 0.5475
do जब-जब 0.00171285
area. आत्महत्याओं 0.0175313
ways, तरह 2.86552e-05
be बड़ा-सा 9.59676e-05
a बड़ा-सा 0.000169922
that सकें। 9.16e-08
while सप्लाई 0.00234562
always हमेशा 0.655826
related समबन्धी 0.00228348
can सकें। 0.011949
be सकें। 0.000988692
neither आत्महत्याओं 0.00797558
silkworms mulberry 0.0945882
increased. स्तरों 9.41027e-06
". छपकर 0.0168327
hearts. वादा 0.463362
came दसक 2.95601e-05
would दसक 0.0016777
reared mulberry 0.0856614
does आखिरकार 0.00629098
making बड़ा-सा 0.00277335
canals, ढेंकली 1
from बड़ा-सा 1.19195e-09
being उतरने 0.000284658
way, तरह 0.000644359
well. पढ़ाएंगे। 0.0105756
impact. दवाइयों 0.548327
reformation. पहलू 1
pointed नुकीले 0.41826
The संचयी 2.44919e-05
is संचयी 8.63837e-08
movies डिब्बा', 0.0167673
life जीवनदायिनी 0.00107109
here. सप्लाई 0.00738259
states? राज्यों 1
composted कम्पोस्टिंग 1
similarly दूधिया 0.114019
H.S. डॉ.एचएस 1
supply सप्लाई 0.0166401
little दसक 0.00275494
decade दसक 0.00366618
centu. दसक 1
aspect. पहलू 0.475571
big बड़ा-सा 0.00224555
Out 242 0.0961193
down उतरने 0.00959815
are नोडल 2.05345e-09
fraction दवाइयों 0.000102376
cultivation. cultivation 0.0273074
significant. संचयी 0.138187
cultivation cultivation 0.00884833
khanam's रहोगी, 1
could सकें। 0.0188451
passes आंचल 0.085201
sharp मदनमोहन 0.0228876
The बोतल 7.95984e-07
when जब-जब 0.00143683
harvesting. जब-जब 0.0211856
95 95 0.928148
lecture व्याख्यानमाला 0.225161
Mysore. मैसूर 0.173943
will उन्मुक्त 2.74686e-06
becoming सुचारूरूप 0.0106535
creation स्पर्श 0.10059
your तरक्‍की 0.00114008
pesticides दवाइयों 0.329138
formed द्विवर्षी- 0.00773721
To भुरभुरी 0.012653
lentils मूँग 0.0332405
into उन्मुक्त 1.37532e-05
food 425 0.000540373
downward नुकीले 0.201765
suicides आत्महत्याओं 0.883876
consent पक्की 0.400271
now 425 0.000747785
Thus पोलिश 1.33098e-05
what लुट 0.000801566
Grains मूँग 0.184495
Mysore मैसूर 1
matter. पक्की 0.186838
for बातचीतों 8.15511e-05
jaggery. कीजिए। 0.0821491
for ढुंढ़वाया। 7.11668e-05
increasing. सप्लाई 0.0267986
time-bound समयबद्ध 1
talks बातचीतों 0.0274717
a मरूक्षेत्र 1.81514e-05
regulated 286 0.0346027
became बने। 0.0459765
more बातचीतों 0.000248438
heart. खिलौना 0.0072494
? सीताफल, 0.0034008
must ऐश 0.00502595
soft भुरभुरी 5.35497e-06
having एक्चुली, 0.0539539
sir? सर? 1
motion बीज 0.000157985
don't भांडा 0.00484417
soil संचयी 1.68916e-05
Sir, मालिक 9.57413e-06
you. एस.के.! 0.00223139
bulb नुकीले 0.0271113
far सप्लाई 0.0138728
with वनाच्छादित 0.000237481
Identifying शास्त्रीय 0.318968
these नम्बर 6.43206e-07
classical शास्त्रीय 0.748573
every भांडा 0.00101398
Soil जीवनदायिनी 0.0266629
49381 49381 1
through बोतल 0.00259025
region. पोलिश 0.0027118
vegetables, सुकर, 0.0328876
started फरमाबर्दाई 0.000995963
to फरमाबर्दाई 3.51277e-09
pharmaceuticals दवाइयों 1
an अत्यंत 0.00012069
administration प्रशासन 0.304894
happens द्विवर्षी- 0.0063784
important अत्यंत 0.0287229
sir पढ़ाएंगे। 8.81164e-06
moisture संचयी 0.000102953
Two द्विवर्षी- 0.0147631
it अत्यंत 9.99763e-07
seem बड़ा-सा 0.0675639
Anuradha अनुराधा 1
plays. अनुराधा 0.295283
has अत्यंत 1.6335e-05
toy खिलौना 1
pleasing खिलौना 1
cross फरमाबर्दाई 0.0213182
286 286 0.502341
cumulative संचयी 1
With इंटेंसीफिकेशन 0.00776369
Tug `टग 1
exhibits `टग 1
that भलाई 0.000374464
Forest वानिकी 0.762361
tropical मरूक्षेत्र 6.0796e-07
very अत्यंत 0.0215714
by बाँध 0.00030418
becoming बेज़ार 0.010521
collected बोतल 0.0307914
its भलाई 0.00125013
for भलाई 0.000523931
turn उन्मुक्त 0.00828016
quit देनेवाला 0.250454
them उन्मुक्त 0.00105322
rubbish बकवास 0.460836
Nachle. नच 0.985714
, बेलदार 0.000189743
you बीवी 5.7025e-08
preparing अत्यंत 0.110957
from बाँध 1.38755e-08
extremely अत्यंत 0.35894
groundnuts मूँग 1
objective पोलिश 2.5725e-05
with खारे 0.000960273
Everything लुट 0.160049
desert. मरूक्षेत्र 1
saver जीवनदायिनी 1
that लौटे, 0.000104778
you भलाई 1.60185e-07
humans समबन्धी 0.0492034
foliage दूधिया 1
lactiferous दूधिया 1
forestry. वानिकी 1
songs, नाटिकायें 1
it लौटे, 4.52303e-05
Where ढुंढ़वाया। 0.00449819
on गली 0.000435239
me सीताफल, 0.00332623
The फर्क 7.95279e-05
organising व्याख्यानमाला 0.220039
urban फर्क 0.0607463
lectures, व्याख्यानमाला 1
This खारे 0.000583769
NO मालिक 0.87554
No पक्की 0.0215814
fun एक्चुली, 0.163421
run. भुरभुरी 1.72967e-05
beneath आंचल 0.0664836
at था? 0.000610607
context. सन्दर्भ 1
was था? 0.00220494
Water बोतल 0.0380971
Dibba डिब्बा', 1
into था? 0.0206919
songs गीत 0.520416
set गली 0.0452493
their जबरदस्त 4.78297e-08
there फर्क 0.000833874
just फर्क 1.5257e-06
at स्तम्भ 0.000355176
someone कहो 0.0461355
administration. प्रशासन 1
put जबरदस्त 0.0183151
The रानी 8.03894e-05
eminent गौरवशाली 0.355516
Saturday शाहदारा 0.168225
Shahdara शाहदारा 1
Rather आत्महत्याओं 0.404963
better भलाई 0.0103965
going फर्क 1.9585e-07
Imam तकरार 0.00158421
Boss' तकरार 0.298563
wrangle तकरार 0.183106
abandoned उन्मुक्त 0.409022
occupies अत्यंत 0.000148992
huge जबरदस्त 0.0559169
he था? 0.00277024
in चटनी, 4.12152e-07
much फर्क 0.00929478
there रानी 0.000658698
with 'पदम् 6.27797e-09
talking? बकवास 0.69274
he जबरदस्त 7.59964e-07
upward. नुकीले 1
for चटनी, 8.49376e-08
The सठिया 1.53756e-05
views पोलिश 0.34549
, गोवर्धन 2.81881e-05
have सठिया 0.000173177
was गोवर्धन 5.62234e-05
them बाँध 0.00529876
is नारी 2.13229e-06
widely तादात 0.419958
come सठिया 4.37231e-07
towards स्तम्भ 0.00202068
They गली 0.00610469
no रानी 0.0050156
supplied सप्लाई 0.0393388
instability अनिश्‍चितताओं 1
child पक्की 0.0118569
tremendous जबरदस्त 0.380814
grains. 425 0.0133017
, रखा, 7.43055e-08
dimension 'छायावाद' 4.01403e-06
Places किलोमीटर 0.206245
kilometer किलोमीटर 1
cannot सुचारूरूप 0.00301098
but रखा, 0.000725217
big फर्क 0.00213547
it करा 0.000212057
elevation. उत्थान 0.999977
If करा 0.00494143
be, ऐसी-ऐसी 0.332658
Right 425 0.0370372
during करा 0.0060988
The अगले 0.00020798
' 'पदम् 0.000931503
coming अगले 0.0127705
bloodshed? बुरे 0.999011
The कूटने 5.0919e-07
become सठिया 0.000560891
In अगले 0.000958281
on कूटने 0.000147053
The जीरे 4.12934e-05
these अगले 2.58882e-05
him प्रशासन 0.00869273
did रानी 1.62371e-06
know रखा, 0.00192277
Last अगले 0.0658349
don't रखा, 0.00640942
next अगले 0.733852
Polish पोलिश 0.325744
majorly पोलिश 0.289237
Todharmal कच्चा-चिठ्ठा 1
list नोडल 0.0298887
problems गंभीरता 0.0218979
medium मध्यावधि 0.00705389
gets बोतल 0.00628359
yearly द्विवर्षी- 0.0281036
his नारी 0.0012704
that अदाकार 9.85476e-08
tell सीताफल, 6.11022e-05
essential. अत्यंत 0.00686511
discipline फरमाबर्दाई 0.182693
due लौटे, 0.000788277
changes फर्क 0.0177223
says अदाकार 0.00271779
stem स्तम्भ 0.00418045
be अवश्य 1.56841e-06
The सामंजस्यपूर्ण 1.80951e-05
phenomenal तरक्‍की 1
alive, एस.के.! 0.498254
effectiveness बातचीतों 1
extensive. बातचीतों 1
Secondly, तरफ, 0.308149
definitely अवश्य 0.455655
eyes आँखें, 0.0288796
money उनकी 9.37926e-07
their उनकी 0.104324
levels स्तरों 0.659033
even उनकी 0.00615259
to दुस्साध्य 1.00123e-05
Her पद्मावती। 0.0390638
Queen पद्मावती। 0.30129
Padmavati. पद्मावती। 1
it दुस्साध्य 4.34085e-05
difficult दुस्साध्य 0.00995859
upper स्तम्भ 0.0177153
man. आखिरकार 0.272693
come. हमेशा 1.45459e-06
during टीलिया 0.00518705
this. सामंजस्यपूर्ण 0.00307756
domestic उनकी 9.09012e-07
child, उलझता 0.0880811
with गंदगी 0.000709458
crops जीरे 1.48961e-07
facet पहलू 0.175693
rural फर्क 0.00986213
brittle भुरभुरी 1
carried खारे 0.0151202
is डेस्पीचियाना 2.87241e-08
seriously गंभीरता 1
admitting गंभीरता 1
a डेस्पीचियाना 0.000156951
mid मध्यावधि 0.0135459
using करा 0.0144101
which रीजनल 0.000322156
villages, चौपाल 0.23869
opposite रानी 0.1021
administrative प्रशासन 0.27874
telling प्रशासन 0.102862
k.m किलोमीटर 0.000233775
given अवश्य 1.91639e-07
export. उतरने 0.16684
2880 पाँचवें 1
" डेस्पीचियाना 1.0827e-06
Heeralal हीरालाल 1
his उनकी 0.116067
between अवश्य 0.000237647
man सामंजस्यपूर्ण 0.00474892
water. खारे 8.81333e-06
term मध्यावधि 0.0272989
qualities खारे 0.0187955
separate बाँध 0.0299578
India ख़बरों 6.32883e-08
on दूसरी-तीसरी 2.59969e-07
what था? 4.50085e-07
Prasad छपकर 0.0603086
beginning टीलिया 2.29758e-07
being दूसरी-तीसरी 0.000162708
season ग्रीष्म 0.00747743
difference फर्क 0.0944205
' बचपन' 6.34347e-07
After दूसरी-तीसरी 0.000260794
preserved चटनी, 0.149524
demands रखा, 4.7667e-05
on दुहरा 0.000111021
women. नारी 0.0980956
requirement जीरे 4.98626e-05
whom सेल्युलाइड 9.55137e-06
along जीरे 0.0104703
center रीजनल 0.00843219
manifold. बढ़ाया 0.866394
becomes दुस्साध्य 0.00378856
decide पक्की 0.139579
life. लेफ्टिनेंट 7.8775e-06
prepared ग्रीष्म 0.00477149
tele टेली 1
energizes उद्दीपक 0.342349
nerves. उद्दीपक 1
have अल्ट्रावाइलेट 4.14063e-07
You ऐश 0.000861341
ton 425 0.0244552
, अल्ट्रावाइलेट 3.14633e-09
with गति 0.0017177
my ढुंढ़वाया। 0.000495011
was गति 6.9993e-06
like ख़बरों 0.00109159
organs सुचारूरूप 0.226986
preparing दुहरा 0.0299538
by गति 0.00019994
number. नम्बर 0.117041
your था? 4.99484e-05
desirable भलाई 0.460975
winter ग्रीष्म 0.0157496
could ग्रीष्म 3.26703e-05
Vajpayi बाजपेयी 1
- है- 0.037977
renowned बिज़नेसमैन 1
rate गति 0.113954
enough करा 0.0316428
at मैंकोजेब 0.000581139
280 अदाकार, 6.03583e-06
bottles बोतल 1
named ऐशो 0.00130134
sticky तेलिया 0.158792
understand. समझाइये 0.115756
must अवश्य 0.287289
dignified गौरवशाली 0.998822
Maratha's गौरवशाली 0.00085901
for विनाश 4.26627e-05
rate मैंकोजेब 0.00347135
activity गतिविधि 0.0376188
at बारीकी 0.00188469
breaks कूटने 0.18169
Make समझाइये 0.23819
continued. आत्महत्याओं 0.0283143
north-south. तरफ, 1
Saline खारे 0.276405
For विनाश 0.000172815
Their उनकी 0.180731
seeded. बीज 0.000130867
saline खारे 0.331083
147 147 1
even उठने 0.00287427
salary, बेटा। 0.00127461
palanquin बेटा। 1
found गति 0.00729847
weather ग्रीष्म 0.00992389
rainy ग्रीष्म 0.0477461
harvested ग्रीष्म 1.0485e-05
summer. ग्रीष्म 0.521511
Agro वानिकी 0.00400846
Irrigation ग्रीष्म 0.0269688
itself. ग्रीष्म 0.0225238
associated गंदगी 0.000240342
them. अतंतुमय 0.00610047
position. अत्यंत 0.000880395
controlling मैंकोजेब 0.0763063
himself था? 0.0700778
ways है- 0.313325
burnt ग्रीष्म 1.61962e-05
and भाभी। 8.74641e-05
also भाभी। 0.000279506
suppress दबाएगा? 0.0535342
suppressing दबाएगा? 1
untouchables, दबाएगा? 1
labors; दबाएगा? 1
loose भुरभुरी 0.443522
a भाभी। 4.04449e-09
are पड़ी 9.42059e-07
also पड़ी 9.80497e-05
double दुहरा 0.0293385
, पड़ी 1.73223e-08
ground पड़ी 0.078241
Two जीरे 0.0753376
goats. बकरियां 0.799989
prevented सकें। 0.669367
Imran. इमरान। 0.238152
street. गली 0.626328
getting प्रजनन 0.00813886
crumbly भुरभुरी 1
okay जब-जब 1
farming पड़ी 2.80014e-06
regressive 'गतिहीनता 1
integrated प्रबंधन, 0.0238587
through प्रजनन 0.00999489
joints चौपाल 0.54077
stay चटनी, 0.0387986
if आइएगा। 0.000970808
production अव्यावहारिक 0.000900416
you भाभी। 1.1322e-06
come आइएगा। 5.2205e-09
Actually, एक्चुली, 0.104261
cut अतंतुमय 0.00661819
today पड़ी 1.0989e-06
pest प्रबंधन, 0.264857
intensification इंटेंसीफिकेशन 0.705793
grains, साथ, 0.319852
Kshitij नांबियार 0.00813218
Nambiyar नांबियार 1
them विनाश 6.22544e-07
established रीजनल 0.0118286
Exploitation नारी 1
done. अवश्य 0.0543425
broke पिस 0.749441
communal सांप्रदायिक 0.816326
System इंटेंसीफिकेशन 0.594029
The पित्त 7.03081e-05
harmony. सांप्रदायिक 0.436993
respect प्रबंधन, 0.0260094
issue. मसला 0.132241
you आइएगा। 0.000213075
or लोकनाटक 0.00032522
reflected लहजे 0.16389
see आइएगा। 0.00158537
Eighth आठवीं 0.5
Sita सीता 1
else उठने 0.0459434
may नाचीज 0.0125003
at जोश 0.00196596
conference, संगोष्‍ठी 1
at मुखरित 0.000993506
' 'V' 0.000959334
Soft भुरभुरी 0.00041618
e बचपन' 0.0620263
There हलवा 0.00074047
dyslexia. तकलीफें 0.164791
itself. झुकी 0.0103328
425 425 1
called इवजेनिया 0.00607647
will पिछड़ 0.000415147
is हुआ? 5.34754e-07
little अतंतुमय 0.00631856
if हुआ? 1.24765e-06
plants. hybrid 0.0190537
Always हमेशा 0.457591
to हुआ? 1.05211e-07
The 2012 1.50837e-05
regional रीजनल 0.0104596
S.K., एस.के.! 0.147907
action ग्रटिसिमम 0.0319767
, 2012 1.23176e-06
at 2012 0.00116393
more हलवा 0.00041797
have एकाधिकारी 0.000182243
certain अवश्य 0.0623426
Celsius सेल्शियस 0.495913
here हुआ? 0.00634674
Getting लेकर, 0.0789734
you हलवा 0.00104207
by प्रणाली:- 0.00013042
". बचपन' 0.0143026
his जोश 0.0027308
adoption इंटेंसीफिकेशन 0.416189
Intensification इंटेंसीफिकेशन 1
seed. गति 5.05697e-06
means उत्पाद: 1.54462e-05
separator विभाजक 1
conservation. विभाजक 0.000246606
enforced 2012 0.55088
1st 2012 0.0636904
2012. 2012 1
His उनकी 0.247862
destroying विनाश 1.85583e-05
speed गति 0.475235
leaves 'V' 0.000992529
has 'जश्‍न' 6.79587e-05
Soil ग्रीष्म 0.0759897
2012 2012 1
strangling उलझता 1
chutney चटनी, 0.0884654
covered वनाच्छादित 0.0209098
left उठने 0.010754
just वैसा 0.0133879
ultra अल्ट्रावाइलेट 0.38349
system प्रणाली:- 0.00234364
isn't फर्क 0.162025
The आयोग 0.000663817
resolve दुस्साध्य 0.0639016
summer ग्रीष्म 0.0525299
substances चटनी, 0.0966522
pen, वलीअहद-ए-सल्तनत, 0.499602
happened हुआ? 0.248887
who 'जश्‍न' 0.0010164
" परिषद् 0.0132265
during आयोग 5.94923e-08
enough झुकी 0.00672726
has आयोग 1.20895e-07
relationships सामंजस्यपूर्ण 6.81858e-06
' 'जश्‍न' 0.000728685
rice, साथ, 0.140614
In कांग्रेस 5.73121e-05
ultraviolet अल्ट्रावाइलेट 1
agriculture वैसा 0.00166596
On आयोग 1.03881e-06
violet अल्ट्रावाइलेट 0.727501
up. उठने 0.0533103
congress कांग्रेस 0.97539
True, सच! 1
learned सच! 1
they बिलोचिस्तान 0.000362134
breeding प्रजनन 0.759469
council परिषद् 0.115694
' 'प्रमोशन' 0.00154149
folk लोकनाटक 0.0678003
did वैसा 1.45686e-07
No गति 0.0492166
Govardhan गोवर्धन 1
Rathore गोवर्धन 0.0102533
Kharpa गोवर्धन 0.999847
Jirapur गोवर्धन 0.236549
tahsil गोवर्धन 1
and ठुमरी, 0.000120132
Adhyayan अध्ययन 0.823259
there आर्य 0.000134733
horticulture, साथ, 0.794658
that. वैसा 0.0340208
bridge पुल 0.959777
like वैसा 0.00185127
Eventually, आखिरकार 0.286839
was अनुपस्थिति 5.94151e-05
honored 'पदम् 2.27569e-06
And पुल 3.91208e-07
bitter कटु 0.182848
matter मसला 0.0256345
everyone उठने 0.107886
are लम्बी 4.57505e-06
If काजोल 0.00131567
can लम्बी 0.000136311
while सूखते 0.0031086
are पड़ें, 1.65655e-05
Radhe राधे 0.999994
surface मुखरित 0.059506
way आइएगा। 0.00175689
long, बड़ा-सा 0.00129037
Dr. डा, 0.00212607
dam बाँध 1
loss सूखते 6.06266e-07
search ढुंढ़वाया। 0.0411217
saved. दुहरा 0.0694472
tying बाँध 0.262308
MMTC, नोडल 0.989398
exporters. नोडल 1
? हुआ? 0.0228833
Mongol मंगोल 1
side. स्तम्भ 0.198672
her एरविन 0.00796849
Sri कमबैक 0.333677
According 1961-62 0.00361613
see काजोल 0.00248385
poisonous. तेलिया 1
grow बिलोचिस्तान 0.00229807
we काजोल 0.00120083
there. उपजशक्‍ति 0.00341388
am पड़ी 0.0092415
long लम्बी 0.145541
this, भांडा 7.13395e-07
fertility उपजशक्‍ति 0.0058212
will तलवे 2.11876e-06
soil उपजशक्‍ति 0.00065221
but गुलकंद 0.000726019
last तलवे 0.00196185
The चमेली 1.99707e-09
also. बिलोचिस्तान 0.00198184
prostitute साफ़ 1
camera. साफ़ 1
have चमेली 5.01693e-06
touches स्पर्श 1
deeply. स्पर्श 1
that रितिक 1.46206e-05
still वैसा 0.015771
been चमेली 2.39046e-07
with वज़ूद 0.000149242
regions चमेली 0.00589303
Despichiana डेस्पीचियाना 1
pais डेस्पीचियाना 1
us वज़ूद 0.0048029
forest. वनाच्छादित 1
plants. अनुपस्थिति 0.00445839
drying सूखते 0.0366468
this परियोजनाएं 1.7545e-05
till तलवे 0.000470703
want आइएगा। 0.00166779
remains वैसा 0.0159129
lag पिछड़ 0.143771
behind. पिछड़ 0.390164
There फसल-पशुधन-मत्स्य 0.00044983
off आर्य 0.0198913
my ऐशो 0.0064601
were परियोजनाएं 0.00153762
what हलवा 0.0019084
twenties 27 1
a फसल-पशुधन-मत्स्य 0.000113046
among अनुपस्थिति 0.00435256
Which लम्बी 0.0456667
India, बना, 0.0315082
Like भाँति 0.069604
scenes मंज़र 1.24514e-05
celluloid सेल्युलाइड 0.999977
for इए 0.000162585
Indian परियोजनाएं 1.50172e-06
Because वज़ूद 0.00159366
obtain अतंतुमय 0.000634401
still उपजशक्‍ति 0.00515669
been (आइएआरआइ) 1.39375e-06
several पड़ी 0.0326819
perennial बेलदार 0.679004
Education मध्यावधि 0.329931
creepery बेलदार 0.971003
year सिंहावलोकन 0.000575166
would 'प्रमोशन' 1.5842e-07
at खौफनाक 0.000294619
grows अनुपस्थिति 0.0054914
commission आयोग 0.93434
comission आयोग 2.1773e-05
commission. आयोग 0.370099
The अनन्य 1.25036e-05
, 52000 3.22389e-05
Extension मध्यावधि 0.0351231
Madan मदनमोहन 0.0476191
started अनन्य 1.74114e-07
What हुआ? 9.4166e-05
keep तलवे 0.00319271
develop बिलोचिस्तान 0.00709102
this कत्ल 0.000260162
that कत्ल 0.000259238
teach पढ़ाएंगे। 0.120133
have कत्ल 1.57016e-07
: उत्पाद: 0.0032879
expression शेर 1
that बोला 0.000511925
S. डा, 0.0196838
camp. कैंप 1
animal 1961-62 0.00346503
Amitabh अमिताभ 0.000213341
ever-changing बारीकी 1
from अनन्य 1.7193e-08
Long लम्बी 0.76204
Edible चटनी, 1
humans भाँति 0.0512758
He बोला 0.00372854
crumbly. भुरभुरी 1
trees. गुणन 0.02787
he कत्ल 5.57193e-06
Board माध्यमिक 9.81273e-05
lentils, भुरभुरी 0.510572
During सिंहावलोकन 0.00173484
those पड़ें, 0.00323604
to बदलनी 2.01174e-08
Mohan मदनमोहन 0.0407965
please प्लीज 0.00295112
should बदलनी 0.000388852
be 9520 0.000123643
India. 52000 0.001084
some खौफनाक 0.000418234
poem. शेर 0.496505
functioning एकाधिकारी 0.0277337
board आयोग 3.49611e-06
beginning अनन्य 0.00223031
going ग्लोबीकरण 0.00643855
cultivation परियोजनाएं 0.00153221
I बोला 4.17304e-08
talks समाए 0.067724
due गुलकंद 0.00104644
Please प्लीज 0.163179
told बोला 0.0337863
projects परियोजनाएं 0.372803
impractical अव्यावहारिक 1
government. परियोजनाएं 0.00735701
O. ग्रटिसिमम 2.54762e-05
Gratissimum ग्रटिसिमम 0.166586
The अंडे 2.94762e-09
romanticism. 'छायावाद' 1
anti-bacterial ग्रटिसिमम 0.324379
signifies गति 0.0357803
In मैच 0.000817433
raising कांग्रेस 0.00462595
take मैच 0.00374322
taken दुकान 0.00197671
starting काजोल 0.0555985
Due अनुपस्थिति 0.00271995
you औज़ार 1.41615e-06
there कमी 0.0114236
knot हिमालिया 0.14841
are प्रयत्‍नशील 4.50623e-08
cumin जीरे 0.542437
grown राजस्थान 0.00513558
weathers. ग्रीष्म 1
a प्रयत्‍नशील 5.56141e-05
mostly राजस्थान 0.001038
Rajasthan राजस्थान 0.9567
up समुद्रतल 0.0125314
Vidya आईं। 0.0819106
reduced कमी 0.115834
Secondary माध्यमिक 0.649681
bottle बोतल 1
cone. बोतल 1
Here, बना, 0.191727
". परिषद् 0.0408683
against मैच 0.0513992
m. लम्बी 9.98656e-06
management, प्रबंधन, 0.386355
quite प्रयत्‍नशील 0.00196582
sole तलवे 0.246281
was यथावत 0.000129199
Finally आखिरकार 0.15915
seen कमी 3.35866e-07
initiated परियोजनाएं 0.0292194
angle बड़ा-सा 0.000144913
stalk. बड़ा-सा 0.17299
vigorous क्लासिकी 0.20043
long प्रयत्‍नशील 0.00194413
in पनपते 7.3399e-07
October अनन्य 0.00749006
States राजस्थान 6.02459e-06
between मैच 0.00617549
there, लौटे, 0.0219853
beaten पड़ी 0.00317095
who क्लासिकी 0.00148018
sauces, चटनी, 1
Mandi समित्यों 0.498477
Samiti समित्यों 1
songs. गीत 0.419273
place मैच 0.00471564
intact उपजशक्‍ति 0.0130316
with पथरी 0.000143435
song गीत 0.00449611
time. खौफनाक 0.00141704
tillers करा 0.359057
artists, अदाकार, 0.248438
scarcity कमी 0.761782
eyes झुकी 0.0143203
for पथरी 8.56154e-05
queen रानी 0.543036
state. बदलनी 0.0127376
ten सिंहावलोकन 0.00580347
formed, तरफ, 1
smashed मसला 1
this. डरता 0.00606319
This पथरी 0.000319348
Rajasthan. राजस्थान 1
chutney, चटनी, 1
destruction विनाश 0.897298
I डरता 8.15424e-07
The ज्यों-ज्यों 3.96004e-08
for वस्तुएं 0.000167647
undertaken अनुपस्थिति 0.0796011
absence अनुपस्थिति 0.0483891
oranges संतरे 0.19335
contains संतरे 0.0176707
oranges. संतरे 1
me रितिक 3.99556e-05
hectare. 9520 0.0181785
a कामेडी 0.000287859
doing डरता 0.0105245
hopeless, बेज़ार 1
Making उन्मुक्त 0.0802526
You पड़ी 0.00827916
many वस्तुएं 0.0012844
as ज्यों-ज्यों 0.00111414
elements वस्तुएं 0.00390945
visualized. फर्क 1
keep नचदे 0.00426205
increase बढ़ोत्तरी 0.00265285
from ज्यों-ज्यों 6.07015e-08
had कामेडी 9.77482e-06
motion गति 0.658677
evolution बना, 1
cultures, बना, 1
P. डा, 0.0741558
itself. मैच 2.29844e-05
If सुधीर 0.00420175
cereal बढ़ोत्तरी 0.113231
due कमी 0.00591043
multiplication गुणन 0.530767
when कमी 0.00217861
change बदलनी 0.00623777
highly गुणन 0.287133
specialized गुणन 0.387304
forest गुणन 0.00796183
grow पनपते 0.00959672
multiplicity गुणन 0.308174
Sudheer सुधीर 1
organization. (आइएआरआइ) 0.281686
weight उतारकर 0.0134991
lack कमी 0.556109
While सोहराब 0.00980212
includes बढ़ोत्तरी 0.000130498
sing गीत 0.329935
lacks कमी 9.5894e-06
axe. मारते 0.997045
with केलकेरियस 0.000198703
reduction कमी 0.668149
effective पथरी 0.00594462
" उपयोग" 0.00463114
January कटती 0.0689787
Mughal मुगलिया 0.229407
Akbar मुगलिया 0.374208
committed कत्ल 0.0727266
tropical ज्यों-ज्यों 0.0139835
girl सठिया 0.00672874
crop. पनपते 0.00600913
traditions एकाधिकारी 0.0615216
number पनपते 0.00791703
poetry जोश 0.0526772
weft ताना 1
elements उपयोग" 2.25204e-07
held अनुसन्धानशालायें 0.021006
since तरीक़े 0.00389901
time. प्रयत्‍नशील 0.00190025
output उत्पाद: 0.00487447
me बोला 0.00787347
globalization. ग्लोबीकरण 0.571589
dropped झुकी 0.428766
by विभाजन 0.00027476
they विभाजन 0.0014991
ot सीताफल, 4.01142e-05
use उपयोग" 0.00146754
reproduction प्रजनन 1
have तकलीफ 0.000249644
was तकलीफ 9.41762e-08
it तकलीफ 0.000157048
growth बढ़ोत्तरी 0.00405902
Research अनुसन्धानशालायें 0.0125638
there तकलीफ 0.000570809
same. वैसा 0.113313
journalist, मदनमोहन 0.285672
eggs अंडे 0.210208
hunt हंट 0.9
lays अंडे 0.511981
away ज्यों-ज्यों 0.00796085
light. अंडे 1.29278e-05
favorable अनुकूलता 0.0180536
Emphasis खारे 2.66505e-06
you? ढुंढ़वाया। 0.0206232
significant अनुकूलता 0.00341651
salty खारे 0.0094583
done भट्‍टी 0.000457988
by दोगुने 7.89088e-05
has दोगुने 7.97567e-05
acid. पित्त 0.45513
as खुलते 0.00124559
stopped एकाधिकारी 0.0315862
soil केलकेरियस 1.51556e-06
secret भांडा 0.227077
flower खुलते 0.00764141
tilling, दूसरी-तीसरी 0.215447
soon खुलते 0.00579444
Sankrityaayan. लेकर, 0.168373
am खुश। 0.00432853
two. नम्बर 0.318216
award. 'पदम् 0.0597086
teachings लेकर, 1
Buddhism, लेकर, 1
than दोगुने 0.000623407
company कम्पनी 0.12292
increasing दोगुने 0.00146313
child, ढुंढ़वाया। 0.0902237
presence काजोल 0.0291923
by पुष्पगुच्छ 1.14546e-08
goods वस्तुएं 0.0126707
chance फसल-पशुधन-मत्स्य 0.00720235
affected विभाजन 0.0210317
grains विभाजन 1.84476e-07
become दोगुने 2.76072e-05
do खुलते 0.000734318
mencozeb मैंकोजेब 0.000114781
- विशद 0.00192772
'. उपयोग" 2.24366e-07
livestock अनुकूलता 0.0329212
became तरीक़े 0.00259494
trying प्रयत्‍नशील 0.0221067
separates एब्सलूट 6.42945e-05
beating. कूटने 0.569286
from दृष्‍टिकोण 0.0007158
requested आग्रह 0.750262
Classical शास्त्रीय 1
robbed लुट 0.222277
becomes 'सूप' 0.00323056
is मेक‍अप 3.95682e-05
the मेक‍अप 3.31668e-09
000 52000 0.149109
respective परिषदों 0.130694
he जमींदार 1.48982e-06
doing दृष्‍टिकोण 0.0158547
polu-fleas भृंग 0.889351
jasmine चमेली 0.567209
Jasmine चमेली 0.143178
plantation 85-92 0.00811499
Rs 52000 0.0190654
orchards चमेली 1
productivity. बढ़ोत्तरी 0.026167
passed सिंहावलोकन 0.0183014
done दृष्‍टिकोण 0.000385506
The गैरउपयोगी 1.51333e-05
take विशेषांक 0.00254385
SRI अनुपस्थिति 0.0292685
has लाइसेंसधारक 0.000220594
their गैरउपयोगी 0.000283382
absence कमी 2.75227e-05
sorghum. भाँति 0.113691
using 'सूप' 0.00247163
only. वस्तुएं 0.0015837
kept. यथावत 0.0893197
let देती, 0.0789723
due अनुकूलता 0.00104568
but देती, 0.00128598
also बांग्लादेश 8.89045e-08
capitalism ग्लोबीकरण 0.0272151
with Systems) 0.000353433
wasted 52000 0.0449371
production-India कमी 0.000393388
contain 85-92 0.0345657
During जमींदार 0.00578295
wife. बीवी 0.665939
weather 'सूप' 0.00367293
point दृष्‍टिकोण 3.22245e-05
grown विशद 0.00376486
Ranbeer रणबीर 0.930711
52 52000 0.467942
partition विभाजन 0.808068
them पुष्पगुच्छ 2.59911e-07
matter भई? 0.00853178
the गुदगुदाएगा 1.04775e-08
go ज्यों-ज्यों 0.00300798
nature अनुकूलता 0.00763591
special विशेषांक 0.0111494
being 'सूचना 0.000122001
be मोल? 7.5045e-05
ourselves उन्मुक्त 0.254191
cow-buffalo, भेंड-बकरी, 1
go उतारकर 3.12119e-05
Rani रानी 0.980864
Shilpa शिल्पा 1
Shetty शिल्पा 7.06283e-05
line ज्यों-ज्यों 0.000946679
reach विभाजन 0.0256683
problem तकलीफ 0.0346987
hid था? 0.864596
Did था? 0.0337257
house? था? 1
information 'सूचना 0.00230996
that कह 0.00186305
workshops अनुसन्धानशालायें 0.317927
store. दुकान 0.448175
vivid. विशद 1
Along Systems) 0.0239075
these निचोड़ 0.000586318
shop दुकान 0.796133
was कह 8.854e-09
be गुस्सा 4.90966e-09
get गुस्सा 0.00186146
rich सम्पन्‍न 0.0241235
worth मोल? 0.0116469
way तरीक़े 0.0014886
Average उत्पाद: 0.208657
comprehensive विशद 0.442915
say कह 0.0190761
your उतारकर 0.000957128
frequently केलकेरियस 0.000565803
rains विभाजन 0.0154277
work. तरीक़े 0.00812478
every 'सूचना 0.000575456
grown बांग्लादेश 0.00403443
breeding अनुकूलता 0.0419618
Ravan, उन्मुक्त 1
perspective दृष्‍टिकोण 0.284867
food भोज्य 0.0114848
make चकबंदी 1.01872e-05
done 'सूचना 6.6359e-05
hostel उठने 0.631577
I मिलूँगा, 0.000112256
does देती, 0.0099311
what तकलीफ 0.00472066
reduce चकबंदी 0.00870466
will प्रार्थना 0.00123082
you कह 7.23379e-07
Srilanka बांग्लादेश 0.18389
Bangladesh बांग्लादेश 0.709622
company. कम्पनी 0.750037
Habib, हबीब! 1
Name हबीब! 0.33642
particularly अनुकूलता 0.0291241
Areas उनकी 4.91508e-05
, कान्फ्रेंस 5.19474e-05
writers, अदाकार, 0.665584
In कान्फ्रेंस 0.000558529
those जमींदार 5.75565e-08
The शुरुआती 0.000146322
regard. परियोजनाएं 0.168997
cities गैरउपयोगी 2.37391e-06
technologies. इए 0.209628
getting भोज्य 0.00143955
In शुरुआती 3.52643e-08
supply जलापूर्ति 0.0220535
conference कान्फ्रेंस 0.0610174
till प्रार्थना 0.000126246
nearly लाइसेंसधारक 0.0602938
begins खुलते 0.0378235
six छ्त्तीस 0.0105585
it पुत्र! 2.77839e-05
do चकबंदी 0.000427305
actor अदाकार 0.0182842
and छुट्‍टी 0.00012482
phas लादेन', 1
vicky लादेन', 1
donor लादेन', 0.382618
first शुरुआती 0.00373373
These मोल? 2.20982e-08
etc.. 'सूचना 0.00855297
a छुट्‍टी 0.000587081
councils. परिषदों 1
planting बदलने, 0.00760451
Company कम्पनी 0.792811
edible भोज्य 0.221605
gulkand गुलकंद 1
harmonious सामंजस्यपूर्ण 1
dear, ऐश 0.275643
big दुग्धशालाओं 0.000839377
day छुट्‍टी 0.00696161
until विभाजन 0.125591
halwa ऐश 1
happy, ऐश 1
got छुट्‍टी 8.20606e-08
tilled प्रणाली:- 0.148081
dealing परिषदों 0.331138
introduction अनन्य 0.0343533
their प्रथाओं 0.000745248
issue विशेषांक 0.0642465
Rani's रानी 0.708347
knew पुत्र! 0.0167893
done. 'सूप' 0.00428087
milk दुग्धशालाओं 0.00314684
Ivzenia इवजेनिया 0.000623595
request आग्रह 0.50052
to 20.1% 2.88229e-07
issues विशेषांक 0.089663
out देती, 0.00394446
The रोमानिया 7.58541e-05
overview सिंहावलोकन 1
villagers वालो 0.107392
has जबसे 2.0972e-07
second-third दूसरी-तीसरी 1
leveled, दूसरी-तीसरी 1
patela दूसरी-तीसरी 1
Lieutenant लेफ्टिनेंट 1
novice. लेफ्टिनेंट 0.992955
J.P.S जेपीएस 1
useless उपयोग" 8.89574e-06
Perfumed संतरे 0.0610987
oils संतरे 0.0107109
trade. दृष्‍टिकोण 0.120023
such प्रथाओं 0.000940364
Beautiful ब्युटी 1
census 1961-62 0.238282
stage शुरुआती 0.0155196
its कदमों 0.000240954
with कैरियर 0.00123315
6th अनन्य 0.14757
to चाहते 2.01753e-06
technological अनुकूलता 0.0859078
city परिषदों 0.0113068
councils परिषदों 1
guidelines परिषदों 1
adopting Systems) 2.06694e-06
started कैरियर 0.00010397
The पहला 0.000291708
mainly चकबंदी 0.00505681
weeds पनपते 0.00361222
order इकटठा 0.00699128
talent. जबरदस्त 0.0252811
processes. फसल-पशुधन-मत्स्य 0.0515273
He चाहते 1.43329e-06
would मोल? 0.00232765
9520 9520 1
industries. दुग्धशालाओं 0.0210764
during (कार्तिक 1.44365e-05
greatly विभाजन 0.15925
opposite. ज्यों-ज्यों 0.00108307
first पहला 0.0835795
young एरविन 0.0111893
wish चाहते 3.52018e-05
national कान्फ्रेंस 0.00571242
We पुत्र! 0.00193158
awesome जबरदस्त 1
The पुदीने 4.84228e-05
rupees रू० 0.0115668
off छुट्‍टी 0.0609486
as (कार्तिक 0.00108637
now. तकलीफ 0.0670876
disclosed. भांडा 0.294422
restricted दुग्धशालाओं 0.0599437
it लूँगी। 7.09294e-05
his कदमों 3.09836e-08
pass बोला 0.414923
erased. नम्बर 1
breding प्रजनन 0.0190201
The रबर 3.78631e-05
doesn't पुत्र! 0.0109073
poet संपादक 1.00813e-05
problem. तकलीफ 0.0648353
duly यथावत 1
perspective. दृष्‍टिकोण 0.114271
saplings दौजियों 0.135065
even जूती 0.00119161
countries रोमानिया 6.55436e-06
unproductive गैरउपयोगी 0.1211
CD 575 0.5
villagers गैरउपयोगी 0.0633946
sage. गैरउपयोगी 1
recommended चकबंदी 0.012053
research रबर 0.00386813
it 220000 2.34295e-05
were फ़िल्में 0.00024861
time? हुआ? 0.450788
techniques. बदलने, 0.0165991
shed उतारकर 0.0721245
showcase जबरदस्त 0.0204872
groom वर 1
limits फरमाबर्दाई 0.308715
obedience. फरमाबर्दाई 1
In लड़ाई-झगड़े 2.83224e-07
destruction. विनाश 0.935981
Rani. रानी 3.76773e-05
There लेवेन्डर 0.00109428
are लेवेन्डर 0.000103632
systems Systems) 1.32346e-06
these लड़ाई-झगड़े 0.00117214
absolute. एब्सलूट 1
country फ़िल्में 2.07737e-05
Her उनकी 0.200152
but कांग्रेसी 0.00124926
it कांग्रेसी 0.000104692
Congress कांग्रेसी 0.495784
area संदर्भित 0.00202811
is अम्बेलीफेरी 6.90832e-08
Domestic 'V' 9.1831e-05
kund 'V' 0.997751
which लेवेन्डर 4.18006e-06
V 'V' 1
gets निचोड़ 0.00275614
insects(sunda) भाँति 0.876232
insect(sunda)attacks भाँति 1
each चाहते 0.0107828
a अम्बेलीफेरी 0.00033191
related संदर्भित 0.00373592
currently 220000 0.0149068
" मैग्ज़ीन, 0.00246374
news, ख़बरों 1
, संलग्न 1.19329e-06
that पार्टनर 0.000432691
won't मिलूँगा, 0.0253386
stuck निचोड़ 0.146309
plays. नारी 0.704717
a संलग्न 0.000515692
long, लम्बी 0.258311
saying कह 0.63688
its संलग्न 0.00168909
" अम्बेलीफेरी 2.74864e-05
right प्रथाओं 0.00404333
work रबर 0.00149851
nicely. बोला 0.779371
them. लूँगी। 0.0143233
regions उपोष्ण 3.16917e-05
age, एरविन 0.296875
dare नाचीज 4.63359e-05
Monopoly एकाधिकारी 1
as उपोष्ण 0.0028016
as यथासंभव, 0.000544526
her जबसे 7.12577e-06
No मिलूँगा, 0.00341621
species लेवेन्डर 1.99139e-06
old, सठिया 1
actress कमबैक 6.50921e-06
rearing प्रथाओं 5.10243e-06
In उतेरा 9.42398e-07
10,000 लाइसेंसधारक 0.000214228
thing देता, 0.00161203
much यथासंभव, 0.00219108
getting उपोष्ण 0.00430274
kapoor अदाकार 0.0374076
content. 85-92 0.0829402
corresponding बदलनी 0.564168
Rupees रू० 0.105027
than उतेरा 0.000223642
are एफटीए 4.13451e-09
today's पुत्र! 0.0180085
generation पुत्र! 0.0295619
her कैरियर 0.0376579
daily रोज 0.213193
at ऐन 0.000572185
Sudhir सुधीर 1
got कलाकारों, 2.31736e-05
Outside बिलोचिस्तान 1
Balochistan बिलोचिस्तान 1
there एफटीए 0.00020916
my देती, 0.00225757
such उतेरा 0.000888007
much उतेरा 0.00348285
tropical उपोष्ण 0.019348
than एफटीए 0.00120161
it मरुमूमि 3.11368e-05
seen, पड़ें, 0.187969
initial शुरुआती 0.269271
Tushar अदाकार 1
what चाहते 2.84075e-06
have प्रोफेसरों 0.00070588
As यथासंभव, 0.00551704
under उपोष्ण 0.00406369
say प्रोफेसरों 1.9792e-06
ailments पित्त 5.40176e-05
It प्रोफेसरों 7.52925e-09
5rs 220000 1
12rs 220000 1
55000 220000 1
to करवायें 4.00319e-05
Rupees 220000 0.00877207
220000 220000 1
Rupees. 220000 0.333464
reduced मरुमूमि 0.00482244
stepping उनकी 2.58388e-05
feel डरता 0.0180135
have अटलांटा 1.56052e-05
different उतेरा 0.00199482
these करवायें 0.000595098
escaped? था? 0.0953158
promotion 'प्रमोशन' 0.148497
region. उपोष्ण 8.9963e-05
better उतेरा 0.00572043
What चाहते 2.50062e-05
Jash बचपन' 1
Bachpan बचपन' 1
are सीधे-सीधे 8.99503e-06
From उतेरा 1.09615e-06
engaged संलग्न 0.0949248
will रहूँगा। 0.00166433
world. एफटीए 0.00146006
gist निचोड़ 4.76491e-05
studies निचोड़ 0.0370681
want चाहते 0.36365
why सीधे-सीधे 0.00149824
subtropical उपोष्ण 1
Tyunsang किफिरे 0.00432677
Kifire किफिरे 1
properties संदर्भित 0.0448551
form उतेरा 0.000885614
400 एफटीए 0.000209717
did प्रोफेसरों 0.00571179
with औद्योगिकी 3.29859e-07
him मिलूँगा, 0.00221203
properly इकटठा 0.00721549
everyday रोज 0.0522325
crop उतेरा 0.000638111
' 'खोसला 0.000653934
shall लूँगी। 0.0119593
comeback कमबैक 6.10553e-06
devi. कमबैक 1
home. विभाजन 0.0527504
, त्रिपुरा, 6.86534e-07
That सीधे-सीधे 0.00297288
item भोज्य 0.378568
subsidy एसएसपी) 0.0142721
up एसएसपी) 0.00701525
Let मैच 0.0388448
acted 'जश्‍न' 0.176285
Abohar भिवानी 1
you? हुआ? 0.263612
continue प्रार्थना 0.321128
Deficiency केलकेरियस 1
limestone केलकेरियस 0.0534138
calcareous केलकेरियस 1
industry औद्योगिकी 0.0110277
Padma 'पदम् 1
Vibhushan 'पदम् 1
are देशभर 1.83132e-05
well उपोष्ण 0.0190629
done. पुदीने 0.0167973
as जेलियांग 0.00072635
First पहला 0.116078
Currently एफटीए 0.021062
are पृष्‍ठों 1.45161e-08
, पृष्‍ठों 6.35441e-05
there देशभर 5.31642e-08
for जिंदा 0.000848752
have फिक्र 0.000565674
woke उठने 0.667027
other. चाहते 0.00123188
world संसर 0.00185515
a फिक्र 0.000180351
Education. माध्यमिक 0.233504
If फिक्र 0.00264902
right. देता, 0.0451225
Woman नारी 1
there पृष्‍ठों 0.000185178
public संलग्न 0.05765
training प्रशिक्षित 0.0600952
under 'खोसला 0.000907982
Appointment प्रशिक्षित 0.999748
trained प्रशिक्षित 0.786977
country देशभर 0.00821921
twofold दोगुने 0.30861
Southern दक्षिणअमरीका 0.239682
America दक्षिणअमरीका 0.00646315
by प्रोटीन 0.000411306
know संसर 0.00115852
films. 'प्रमोशन' 5.05557e-07
has प्रोटीन 3.8593e-08
pace, गति 7.31418e-05
concerning रबर 0.113062
coffee रबर 0.0674857
meet मिलूँगा, 0.00461495
trained. प्रशिक्षित 0.890778
bothered पड़ी 0.843849
as मेढक, 9.0116e-08
continue प्रथाओं 0.173727
nutritious भोज्य 0.157003
I फिक्र 0.000555787
by स्वच्छ, 4.25621e-08
collect इकटठा 0.0565896
At देशभर 0.0138668
don't फिक्र 0.0184126
do फिक्र 0.00161963
according करवायें 0.00508974
such मेढक, 0.000654379
germination दौजियों 0.0724147
over देशभर 0.00946305
Maharashtra त्रिपुरा, 0.0120046
complaint. कम्प्लेन। 1
satisfactory. दौजियों 0.253481
their स्वामियों 0.000626405
rubber रबर 0.760357
protein प्रोटीन 0.797655
-RRB-. एसएसपी) 0.000337496
make स्वामियों 0.00110041
telling कह 0.547769
in करूंगी? 8.2042e-07
filth गंदगी 4.95264e-05
will करूंगी? 0.00031586
a आयुर्वेद 1.68348e-06
fall उपोष्ण 3.56048e-05
regarding स्वामियों 0.010931
with मामले 0.00280773
has आयुर्वेद 0.000342364
' वध' 0.00462465
psuedomonas (बैक्टीरिया) 0.00475665
solenesiarum. (बैक्टीरिया) 1
something मिलूँगा, 0.00513759
In मामले 0.0033545
take मामले 1.8227e-06
superior बदलने, 0.374898
make तहूत 0.000824153
You गुस्सा 0.00287112
gives संसर 0.00210328
several लेवेन्डर 0.00768922
fulfilled प्रोटीन 0.192771
in घमौरी 9.95774e-08
has तहूत 6.62789e-05
On मामले 0.0121803
crop-livestock-fishing फसल-पशुधन-मत्स्य 1
best मामले 0.0118862
It तहूत 0.000202673
garden यथासंभव, 2.29624e-05
strong मरुमूमि 0.00430913
cell खौफनाक 0.000733927
train प्रशिक्षित 0.175381
known जेलियांग 0.00446334
me देता, 7.27076e-05
nutshell नाचीज 1
entire देशभर 0.0058715
do करूंगी? 0.000650429
protein. प्रोटीन 0.727498
has सेक्सुअल 4.07068e-07
non-traditional बदलने, 0.409468
quality. संलग्न 0.200991
making घमौरी 0.00934389
film. रितिक 0.0284118
these मुख्यतयः 0.000586374
an थैली 0.00123558
small. कोलगेट 0.0544829
scared डरता 0.0782827
keep रखे। 0.0127861
harming सीधे-सीधे 0.240282
becomes स्वच्छ, 0.0159322
introduced पार्टनर 0.378024
Such प्रोफेसरों 0.000238258
gets मरुमूमि 0.00184822
All देशभर 0.0109396
islands. यथासंभव, 1.8002e-05
- मजरूह 1.4561e-07
FTA एफटीए 1
process. उतेरा 0.0342591
leftist प्रोफेसरों 0.0987589
' सेक्सुअल 0.000977452
regard मामले 0.0945546
, तमाम 6.84217e-08
families संलग्न 0.0798062
a तमाम 2.73586e-08
shown देता, 0.00988803
spirit. जोश 0.001888
so तमाम 0.00901334
regime. मुगलिया 1
also? पड़ी 0.571266
all तमाम 0.0501711
Pandit छ्त्तीस 0.0727284
from हम 5.77931e-07
among मामले 0.023463
be बैठेगा 0.000223461
will बैठेगा 0.000761014
opens. खुलते 1
I हम 0.104888
dramas लोकनाटक 0.0442474
mint पुदीने 0.494814
probably 'सूचना 0.0236318
we हम 0.533689
variety तमाम 0.0102399
any स्वामियों 0.00068751
price बैठेगा 1.15417e-06
directly सीधे-सीधे 0.00694153
despite तमाम 0.0631675
has ठेले 0.000397911
trade. परिदृश्यों 0.0472297
was मूवी 0.000373281
than बैठेगा 0.000627301
clean स्वच्छ, 0.00016378
Folk लोकनाटक 1
platforms लोकनाटक 0.998142
Kajol's काजोल 4.18285e-05
Karan's काजोल 0.118062
The गांठदार 2.02821e-09
are गांठदार 8.98764e-05
farming वर्गीकृत 0.00224095
income. रू० 8.60041e-05
built 'खोसला 0.0275051
Manipur त्रिपुरा, 0.141049
Karam कुरुक्षेत्र 0.000213371
Thus तमाम 5.55085e-06
Kurukshetra's कुरुक्षेत्र 1
cultivation, बदलने, 0.0315454
dust जूती 0.0393725
lavender लेवेन्डर 0.455485
'. सेक्सुअल 0.0124383
pages पृष्‍ठों 0.4123
bridge. पुल 0.999865
also. थैली 0.00371155
universities प्रोफेसरों 0.142141
world 16 8.02169e-08
stone. पथरी 0.289051
a गड्ढे 1.28793e-05
that कोठिला 3.9669e-07
region 16 0.014878
only. प्रोटीन 0.00315249
kitchen छुट्‍टी 0.42053
For बाई 0.00345095
States. मुख्यतयः 0.0985183
, कोठिला 7.42121e-09
Indians, वज़ूद 0.163703
bullets, वज़ूद 1
We हम 0.515176
thing सच्ची 6.52108e-05
But सच्ची 0.000754079
dramas मुखरित 0.000105321
raised सेक्सुअल 0.044987
family. अम्बेलीफेरी 0.0422751
cultivate अटलांटा 0.00678662
with एकदम 1.73158e-06
by कोठिला 0.000134948
farmer कोठिला 0.00192886
Keep लूँगी। 0.00244172
be एकदम 0.000575128
ways. तमाम 0.0239262
roots गांठदार 0.000230415
there कोठिला 0.000190613
didn't बोला 0.0435069
days, जमींदार 0.30491
using हम 1.63919e-05
filed 'सूचना 1
ambeliferry अम्बेलीफेरी 1
scale मुक्कदस 0.130364
Ayurveda आयुर्वेद 1
matter मामले 0.0550915
provide आदान 0.011788
make चयन 0.00742729
liquid ब्लाइटोक्स-50 0.137514
conceptual मुखरित 1
filmy काजोल 0.0992447
was स्पेनवासियों 5.90448e-09
Put पहला 0.47645
then स्पेनवासियों 1.26891e-06
production. चयन 0.0134611
along थैली 0.00380876
for उपयोगार्थ 1.49446e-06
Abhay अभय 0.999851
mandatory चयन 0.100323
anti घमौरी 0.00116023
at बी०टी०टी० 6.70969e-05
All तमाम 0.0409519
upper उठी 0.0571123
Bangla विशेषांक 4.50151e-05
over कोठिला 0.00412398
far तमाम 0.0544725
memory स्मृति 0.355633
cards स्मृति 0.454193
love चाहते 0.0376057
crime. कत्ल 0.28798
land उपयोगार्थ 0.000747501
qualities. तहूत 0.0474827
The सत्यता 5.0133e-05
sowing. उतेरा 0.0130693
though बैठेगा 0.0208156
industrialization औद्योगिकी 0.419568
Kajol काजोल 0.999932
What करूंगी? 8.19752e-07
use उपयोगार्थ 0.000972995
For जीवाणुजनित 0.000845012
thumri ठुमरी, 0.429536
brought स्पेनवासियों 0.00454472
happened? हुआ? 0.931166
if सेमीफाइनल्स 2.59571e-05
been स्तंभकार 5.34472e-07
match मैच 1
it सेमीफाइनल्स 3.47756e-08
into सेमीफाइनल्स 0.00584947
from जीवाणुजनित 5.08724e-05
has स्तंभकार 0.000131091
better चयन 0.0244588
ample परिदृश्यों 0.170159
advantages परिदृश्यों 1
competitive परिदृश्यों 7.62422e-06
scenarios परिदृश्यों 0.000138025
landlords जमींदार 0.72146
16 16 0.915974
cultivated. 16 8.14504e-06
Bhabhi भाभी। 0.999971
law)hugged भाभी। 0.791902
cried भाभी। 0.0822808
" स्तंभकार 4.17712e-05
20.1 20.1% 1
1985-86. 20.1% 1
history, काजोल 0.105475
match, मैच 0.0642052
agriculture. वर्गीकृत 2.63872e-05
government. कोठिला 0.0247957
western नीति, 0.00674284
' हें। 0.000371414
" beetle' 0.00444816
From स्पेनवासियों 0.00294506
landlord जमींदार 1
based मूवी 0.00844034
whole संसर 3.38511e-08
shop. दुकान 0.824506
son पुत्र! 0.00365911
I वक्त 3.81048e-08
coloured भोज्य 0.11884
Spain स्पेनवासियों 0.0398243
inhabitants. स्पेनवासियों 1
to संबधित 3.39178e-07
Thomas स्तंभकार 0.189346
Erwin एरविन 1
worry फिक्र 0.453407
it 39.28 7.72202e-09
too बैठेगा 0.0142982
time वक्त 0.067906
dug खोद 0.408254
is Hirsutum 3.10148e-06
most Hirsutum 0.00502012
important Hirsutum 3.80934e-07
breathing, तकलीफ 0.772223
dancing नचदे 0.235208
all मॉम। 0.000599418
The दराँतों 1.02149e-09
exclusive अनन्य 0.202621
a तेज़ 0.000376854
before. सेक्सुअल 0.0223841
true सच्ची 0.0158239
managers तरीक़े 0.151055
absolutely एकदम 0.276185
has तेज़ 0.000255733
owners स्वामियों 0.0475185
there तेज़ 0.000324385
deals स्वामियों 0.0965389
wages. स्वामियों 0.40057
Sohrab सोहराब 0.999303
field नीति, 0.00322566
Jashn 'जश्‍न' 1
7 सात 0.0688537
royal तहूत 0.0203528
Shakti क्लासिकी 0.00176479
and उखाड़कर 7.28107e-10
, उखाड़कर 9.33595e-05
itself. नीति, 0.00688874
have प्रवृत्ति 6.05089e-07
Eating रोज 0.515224
must चयन 0.0377517
know पहचानते 0.00255408
everyday. रोज 0.107107
area आह्वान 0.0072978
been प्रवृत्ति 0.000171888
produce उखाड़कर 0.00406036
don't पहचानते 0.00851385
The ओजस्वी 1.52554e-05
like भूस्तरी 0.000407242
settlement चकबंदी 0.332776
rule, चकबंदी 1
like बस! 1.60813e-06
is हुये 2.44566e-08
the हुये 5.74144e-06
for कालोनियों 0.000157609
policy नीति, 0.0039154
zamindar. जमींदार 0.996772
From भूस्तरी 0.00196797
taken प्रवृत्ति 0.00105835
high तेज़ 0.00518081
while प्रवृत्ति 0.00104288
first. मिलूँगा, 0.0372965
inputs आदान 0.127359
The कमेटी 0.000289567
Utera. उतेरा 1
utera उतेरा 1
winnowing 'सूप' 0.0763535
power बांका 0.00345618
being हुये 0.00227701
manure, इकटठा 0.220997
Aryan आर्य 1
lady.Hats आर्य 1
wind मरुमूमि 0.0177406
huge हुये 0.0236612
so मुझे? 0.0017575
industrialization. औद्योगिकी 0.644088
quality परप्यूम 0.00281041
by सर्द 0.000130509
men फतह। 1.47405e-05
wrote क्लासिकी 0.0288337
love कलाकारों, 8.29379e-08
getting ओजस्वी 0.0024661
registered 16 0.0222752
moment ऐन 0.0513507
contracted अटलांटा 1
Atlanta अटलांटा 1
potato. अटलांटा 0.132612
between उखाड़कर 0.00166731
water. उपयोगार्थ 0.00627259
his ओजस्वी 0.000521784
case मामले 0.651116
but जीविका-निर्वाह 0.000544508
highest परप्यूम 0.0137104
it जीविका-निर्वाह 4.68574e-05
write तहत 0.000102709
prompts नचदे 1
Amblyferi अम्बेलीफेरी 1
crops उखाड़कर 0.000835204
also है्। 7.48798e-07
wash लूँगी। 0.00556447
debts हुये 0.056161
breaths, तलवे 0.00118984
method वर्गीकृत 0.00501109
moist. पुदीने 0.37375
tell हम 1.14688e-05
get बह 0.00120047
Termite पुदीने 0.561908
mint. पुदीने 0.996747
committee कमेटी 0.236926
ideas स्तंभकार 0.00390875
false कुप्रथाओं 0.117246
billion फतह। 0.00488547
during बह 0.00221302
of धुरी 2.66488e-08
pits खोद 0.288619
the धुरी 3.46243e-08
are धुरी 0.000127971
heavy बह 0.0240778
this अहम् 1.94412e-05
using दराँतों 0.00306497
there बह 0.000234394
gave कमेटी 1.66126e-06
an अहम् 0.00093161
trouble तकलीफ 0.341051
missed. कमी 0.00348189
have अहम् 0.000220297
important अहम् 0.00169228
got बह 0.00416189
could बांका 0.000707658
this 2009 3.09029e-08
yet पहचानते 0.0128283
darkness खौफनाक 0.0535495
farm. जीवाणुजनित 0.00035756
The राज्य-गृह 3.22337e-05
found तहत 0.000312572
this राज्य-गृह 7.727e-09
preferred. चयन 0.8797
In 2009 0.000857277
different सर्द 0.0018731
it 2009 2.35684e-06
thinks 2009 3.03804e-06
A शाकाहारी 0.0052362
during 2009 0.0060671
owners. स्वामियों 0.372458
pit गड्ढे 0.330706
The विसर्जन 7.56709e-05
responsibilities उतारकर 0.00144934
pilgrimage. उतारकर 0.0416004
belief, खौफनाक 1.56382e-05
frieghtning खौफनाक 1
wishes, खौफनाक 0.608962
%. 39.28 0.0296776
grow. भूस्तरी 0.0521705
? तेज़ 9.67783e-05
Did वालो 0.0165671
under तहत 0.173339
Daily रोज 0.000697752
cut दराँतों 0.00501952
large शाकाहारी 0.00938152
an सती 0.00389854
loses सेमीफाइनल्स 0.58439
Lavender लेवेन्डर 0.271536
blood ख़ुराक़ 0.0115822
ignorant तमाम 0.0295733
ahead. पहचानते 0.535743
with सजाते 0.000118788
truth सत्यता 0.0188185
through ख़ुराक़ 0.00114688
their सजाते 0.000236259
wanted चाहते 0.456179
alive जिंदा 0.115084
be बेकरार 9.32833e-05
columnist स्तंभकार 1
go सेमीफाइनल्स 2.55832e-06
there, लूँगी। 0.0320694
a चाहें, 1.16461e-05
state राज्य-गृह 0.00857588
make चाहें, 9.60868e-05
only. आह्वान 0.00472111
pen, औज़ार 0.500398
partners तरीक़े 1
subjects मॉम। 0.0378839
center धुरी 0.00983727
fact सत्यता 0.0175013
close भूस्तरी 0.0384336
Work प्रोटीन 6.77617e-06
due तहत 4.337e-07
remain. रहूँगा। 0.477506
coal कोलगेट 0.306967
gate कोलगेट 0.250014
Mainly मुख्यतयः 0.0968745
arid मुख्यतयः 0.156246
he चाहें, 0.000291536
home राज्य-गृह 0.00717816
by खाल 0.000218574
While एक-सी 0.00242933
technique विधि 0.127103
